{"model": "Sequential", "Input Layer": {"type": "Conv2d", "input_shape": [28, 28, 1], "filters": 4, "isbias": true, "activation": "relu", "stride": [1, 1], "padding": null, "kernel_size": [3, 3, 1, 4], "output_shape": [26, 26, 4], "weights": [[[[0.37424769435148036, -0.10472681104590699, -0.025413661681754896, 0.26380154536256945]], [[0.18994518528124008, 0.025781054985797806, -0.18396657111284764, 0.04553877114759128]], [[-0.052648288714410074, 0.05297450753930711, -0.06806827744979291, -0.008835448364659226]]], [[[0.0835613266066529, -0.048379445181384574, 0.10208085665637948, 0.04757678209970445]], [[0.11475861824930653, -0.08594656828234482, 0.06195879411609335, -0.3222037363691679]], [[-0.18205626091427324, 0.21154505404557336, 0.12307277613434672, 0.003020925948380002]]], [[[0.0828476771096926, 0.12884078415892314, -0.26705997181280017, -0.1362308771393164]], [[0.23477559124654318, -0.1574309167656201, 0.09808290271829019, 0.23463380764134772]], [[0.07697273414260619, -0.12041265260327771, 0.018945826854893134, -0.13721374617746512]]]], "biases": [[-0.4070452678717637], [0.07049234039871963], [-0.5532382817519692], [0.32662802583854944]], "parameters": 40.0, "name": "Input Layer"}, "Conv2d1": {"type": "Conv2d", "input_shape": [26, 26, 4], "filters": 8, "isbias": true, "activation": "relu", "stride": [1, 1], "padding": null, "kernel_size": [3, 3, 4, 8], "weights": [[[[0.009852972450905235, 0.0569702255945269, -0.02798053917544081, -0.0017978117344042278, -0.0848820841064947, -0.006084248544490511, -0.017645245536424402, -0.09463001713104299], [-0.07715085349277898, -0.012111183981219036, 0.021258552526516254, -0.03860341815210167, -0.15513374568088448, -0.05812646271939681, 0.03460108760170271, -0.09063865996191738], [0.05961089892970336, -0.03812041077517356, 0.09817260505914814, 0.055456479931380386, 0.08034423154431355, 0.005131375262435234, -0.022455634182181054, 0.02160958069976548], [0.008497430457448486, 0.089877164445946, 0.024974430958065126, -0.11601390486230335, -0.05537439770300087, 0.09018523714754385, -0.06631721089722692, 0.013775141479831464]], [[0.04006649580227376, 0.07824220041593609, -0.0055978465060015905, 0.023202146367878453, 0.04130870967327027, 0.01944996083285702, -0.0653027546672708, -0.08935026008629822], [-0.06039980990878784, 0.027851566649693092, -0.005639280099668195, -0.03193319924342893, -0.022549889278294002, 0.05013356523724747, 0.06374321745748403, -0.12719199685157068], [0.02682877200999491, -0.054992625517642446, 0.04848942140937908, -0.08303311537310724, 0.04273082136186017, -0.16725539343452808, -0.05002785570435037, -0.006841752308168173], [-0.03878661265023644, -0.02704827712286294, -0.03441076453092211, 0.04300837952260643, 0.08685495927251545, 0.03576671456171623, -0.0385054205761379, -0.12005424017557226]], [[-0.06303479833945905, -0.0648633196908582, -0.052293689308432346, 0.025797638335706686, -0.036411009256509703, -0.010967292339655902, -0.03388998152360844, 0.017864909857406106], [-0.06289117612050187, -0.11633321662869596, 0.08160873601326005, 0.025458403345938414, -0.03443966860037064, 0.00619193300002917, -0.06900802614556789, -0.0907187426969096], [0.14831793615406189, 0.06105539655146057, -0.08708059341877569, -0.048599630775225486, -0.023582143878720825, -0.032104130514897064, -0.017374164255245995, 0.07753878682274346], [-0.022397875914403804, -0.02086547589235038, -0.12098549476376581, -0.042451484969224317, -0.03454331905819305, -0.05875395617466502, -0.028666971561169347, -0.09978100699828037]]], [[[0.032258854175966564, 0.0026359378160254686, -0.10258393996086043, 0.01948474463548816, 0.011094234062924457, -0.027362034109861332, 0.06526129420898467, -0.014975186325989216], [-0.0040643583758593685, 0.062069401255239715, 0.006543502977576975, -0.00368496104626535, -0.01501665391097362, 0.001810018680343913, 0.027086009446935233, 0.0037289650469566034], [0.01814395267963291, 0.07428954046375007, 0.003507441253456528, 0.04567950444774705, -0.029412879845188675, 0.021167666472183762, 0.025872042270609293, 0.03352764338791288], [0.01823878978516692, -0.059636272965601964, -0.02711446527123659, 0.06451921120529933, 0.08518888875815182, 0.030315941180509683, -0.0922818691450248, 0.012588932135421988]], [[-0.11705719664103904, 0.024793426751410504, -0.1441461392267651, 0.02763579660116643, -0.047473316144607695, -0.06628200562672537, 0.017719918385036698, 0.15081390189926325], [0.03292980720981275, -0.022829848840298577, -0.06891243576459968, 0.08404430731480012, -0.051810405525300064, -0.014870144790891984, -0.165145529672842, 0.03905521251266859], [0.059653275496226926, -0.06943430923354815, -0.02781976223305777, 0.0038236468001475693, -0.0752822586212865, -0.0266028699765847, -0.05361791448555881, 0.03819483333031483], [-0.07558162935079825, 0.04185157412488253, 0.03385796911195733, 0.04353598558234087, 0.040182477096943565, 0.005276970524659716, -0.07499664303544155, -0.05910671680637178]], [[0.06251631065125351, 0.03215954339589583, 0.010973192564622815, -0.048649924466821495, 0.03849058053604411, -0.02793041339826537, -0.060814773938895825, -0.05930124855231727], [-0.032594274937838674, 0.06998061381150855, -0.05443190999054506, -0.013812810558669222, -0.02809365884339467, 0.025190107620987702, 0.14211091737355966, 0.036266031847073874], [-0.03305099834953516, -0.11667463999317096, 0.007733810417378032, -0.0245430757309618, -0.09251738021505722, -0.11588386441055681, -0.025444364450623744, -0.048019566155078075], [-0.11081493240494086, -0.12757424281122517, -0.11348219503549688, 0.08133152075809144, -0.013208757259660803, 0.04738366936754764, -0.041193781861008257, 0.09400672247429903]]], [[[0.08384090598149525, 0.041718597572670886, 0.03460365299033486, -0.009600473241183858, 0.06366254951946457, 0.08088458031360293, 0.05010204522565875, -0.030358949281829754], [0.045270230882482845, -0.10834202301554237, 0.09004395792915257, -0.0039941221484688615, 0.029306756648590598, 0.0015018212558315944, 0.03786987507175108, -0.06811823261163533], [0.03458927004003297, 0.05107109915010339, -0.03882474766516249, 0.030512540711642205, -0.1154623989864046, -0.04073371129055054, 0.0013352761423383922, 0.035592251710221116], [0.021389658964682475, 0.024036279389251406, 0.002288029656052664, -0.05075847476087848, -0.025466366490240873, 0.10036010643173167, 0.02536485367908456, 0.016660280664885743]], [[-0.0023215268689229696, -0.004307789781250182, -0.12590358028594542, 0.004964770688535921, 0.08440957016035221, -0.016589861206075668, 0.018137748875465917, -0.06432745087924914], [-0.07496455361024806, 0.0626389548273133, -0.08347685630993225, -0.0527604109150128, -0.02058028083841966, 0.004037572623636612, -0.06406437308870733, 0.06546478181059899], [-0.02051028068372968, 0.03675414751808036, 0.0024204715588049754, 0.017394937091910225, 0.10281846852635146, 0.08270120079555474, -0.08512944412706512, -0.06919835651807109], [-0.04539039810444461, -0.03884344852536449, 0.031053632628183336, 0.03221293581974329, -0.00897408337559315, 0.03561845504219544, -0.02016825416373032, 0.00953612427771264]], [[0.09195651836440984, -0.06525802565721305, -0.04693175352601613, -0.12904412192122147, 0.03541129010171378, -0.05221257026271318, 0.003254661805952109, 0.02445083315358892], [-0.08802141924778717, -0.003826046271755809, 0.0685852832091684, -0.1481082177472964, 0.096990205833803, -0.05571688873671842, -0.0025148766540121, -0.004505373624502488], [0.035572137343806196, 0.009110513732908837, -0.07187404707336072, -0.009869347903533346, 0.005166540231231624, 0.08145921707859323, -0.006141292141592873, -0.14323761618288214], [0.049142567834941885, 0.03165849578164156, 0.03688972883353943, -0.17580786789262487, -0.0032219365571314875, 0.0029641721469593797, 0.04316526797688769, 0.012943531790308159]]]], "biases": [[-0.4576207088237006], [0.5434263711287202], [0.20749078645732538], [-0.31784966049991364], [-0.22106948272425997], [-0.6468877132679448], [-0.4856777335315005], [0.5476513276714546]], "parameters": 296.0, "output_shape": [24, 24, 8], "name": "Conv2d1"}, "Pool2d2": {"type": "Pool2d", "input_shape": [24, 24, 8], "output_shape": [12, 12, 8], "isbias": false, "activation": null, "parameters": 0, "weights": 0.0, "padding": null, "kernel_size": [2, 2], "stride": [2, 2], "kind": "max", "name": "Pool2d2"}, "Flatten3": {"type": "Flatten", "input_shape": [12, 12, 8], "output_shape": 1152, "isbias": false, "activation": null, "parameters": 0, "weights": 0.0, "name": "Flatten3"}, "FFL4": {"type": "FFL", "input_shape": 1152, "neurons": 64, "isbias": true, "name": "FFL4", "biases": [-1.7497654730546974, 0.34268040332750216, 1.153035802563644, -0.25243603652138985, 0.9813207869512316, 0.5142188413943821, 0.22117966922140045, -1.0700433305682933, -0.18949583082317534, 0.25500144427338167, -0.4580269855026243, 0.43516348812289213, -0.5835950503226648, 0.816847071685779, 0.672720805709661, -0.10441114339062771, -0.5312803768519098, 1.0297326851333461, -0.43813562270441736, -1.1183182462554362, 1.6189816606752596, 1.5416051745134067, -0.251879139213213, -0.8424357382512976, 0.18451869056394285, 0.9370822011089522, 0.7310003438348087, 1.361556125145331, -0.32623805920230253, 0.055676014854776905, 0.22239960855530486, -1.4432169952253369, -0.7563523055944354, 0.8164540110192858, 0.7504447615341785, -0.4559469274680022, 1.1896222680291255, -1.690616826383604, -1.3563990488613127, -1.2324345139149262, -0.5444391616724643, -0.6681717368134277, 0.007314563228903049, -0.6129387354781626, 1.299748074755309, -1.733095623653281, -0.98331009912963, 0.3575077531673654, -1.6135785028221759, 1.4707138666121289, -1.1880175973177194, -0.5497461935354897, -0.9400461615447682, -0.8279323643658708, 0.1088634678336795, 0.50780959049232, -0.8622273465104797, 1.249469742726979, -0.07961124591739943, -0.8897314812650339, -0.8817983894830175, 0.01863894948806016, 0.2378446219236218, 0.013548548628612411], "activation": "relu", "weights": [[-1.635529399380822, -1.044209877709317, 0.6130388816875463, 0.7362052133238238, 1.0269214393997905, -1.4321906110589266, -1.841188300186717, 0.36609322616730366, -0.3317771350528086, -0.6892179780897532, 2.0346075615049335, -0.5507144119145928, 0.7504533303268411, -1.3069923390808191, 0.5805733357942744, -1.1045230926622938, 0.6901214702247076, 0.6868900661384048, -1.566687529578391, 0.9049741214666812, 0.7788223993230673, 0.4282328705967407, 0.10887198989791452, 0.028283634823073247, -0.5788258247909884, -1.1994511991939312, -1.7059520057381703, 0.3691639571070058, 1.8765734269621657, -0.37690335016897475, 1.8319360818255361, 0.003017434031214063, -0.07602346572462335, 0.003957593987599105, -0.18501411089711395, -2.4871515352227695, -1.7046512057609624, -1.1362610068273629, -2.9733154740508856, 0.03331727813886288, -0.24888866705810792, -0.45017643501165083, 0.13242780114877378, 0.022213928039390988, 0.31736797594106797, -0.7524141777250374, -1.2963918071501508, 0.095139443565453, -0.42371509994342044, -1.185983564929173, -0.365461992676627, -1.271023040846661, 1.5861709384232352, 0.6933906585165882, -1.9580812342078666, -0.13480131198999493, -1.5406160245526137, 2.0467139684821385, -1.3969993449532836, -1.0971719846398227, -0.23871286931467955, -1.429066898448291, 0.9490047765052598, -0.019397585962465276], [0.8945977057600133, 0.7596931198502055, -1.4977203810831696, -1.193885976791938, 1.2962625863990573, 0.9522756260818906, -1.2172541306410147, -0.15726516737513793, -1.5075851602643862, 0.10788413080661359, 0.7470556550991475, 0.4296764358626096, -1.415042920852526, -0.6407599230105716, 0.7796263036636958, -0.43812091634884287, 2.0747931679465657, -0.34329768218246975, -0.6166293716831945, 0.7631836460599923, 0.19291719182330652, -0.3484589306523706, 2.2986539407136757, -0.16520955264073184, 0.46629936835718944, 0.26998723863108903, -0.3198310471180883, -1.1477415998765863, 1.703623988120705, -0.7221507700557533, 1.0936866496587212, -0.2295177532399562, -0.008898663292110321, -0.5431980084071721, 0.7530621876919789, -1.6094388961729544, 1.943262263433996, -1.4474361123195851, 0.13024845535270219, 0.9493608646609868, -2.0151887171225265, -0.07954058693411101, 0.30104946378806546, -1.6848999616851803, 0.22239080944544862, -0.6849217352472302, -0.12620118371357705, 1.9902736497540905, 0.5229978045207515, -0.016345402757487165, -0.41581633584065, -1.3585029367597998, -0.5144298913687853, -0.21606012000326133, 0.4223802204219781, -1.094042931032235, 1.2369078851902253, -0.23028467842710793, -0.7044181997350232, -0.591375121085172, 0.7369951690182122, 0.4358672525149101, 1.7759935855067666, 0.5130743788396454], [1.1705269829481435, 2.0777122322502035, -0.45592201921402026, 0.6491729272546821, -0.17478155445149818, 1.0172643432511694, -0.5999830448488669, 1.5761667243192063, 0.6044235385892025, -0.9070304174806991, 0.5920232693603779, -0.4370644156515733, 0.10177577296931657, 1.3083468266441474, 1.3876018114085524, -1.7353911473330734, 0.28837742022732415, -0.33908543327636353, 0.5273691328244136, -0.3743028837477471, 0.47709229741768444, -1.4297626622362145, 0.4077065249765084, -0.828280392745567, 0.4234572818376501, -0.15951736500333072, 1.2410820871966046, 1.6635363107373078, -0.661937714925914, 3.465227148479317, 0.39143861927191975, 0.3272453529764515, -0.31134706056867467, -1.4246555886796946, -0.6248721853412322, -0.1099953959208559, 0.9529594279919252, -0.9833626436429376, -1.0945571896156956, -0.24134874955198468, -0.5951138391567017, -0.9828118947823061, 0.08822993442548502, -0.602759369823714, 1.1255554529825982, 0.9270532988002531, -2.2691569946862655, -0.34817063773317436, -0.1640254026760564, 1.2165805903649096, -0.6268539047283007, -0.2749398078895973, 1.14745743851399, 1.1599689740750685, 0.702184505359777, -1.28390481061431, 1.5223077678776793, -0.17996331764913345, -0.37614736761593637, 0.46034921066168377, 1.455421460737774, 0.2415068878754467, -0.03766667059723912, 0.8315330299051433], [2.299369468755593, -0.9396024430587621, 0.11182257854217889, 2.5394320331114613, 0.40359841542535574, -1.8848343873195796, 1.2774520318648948, -0.44558826380657596, -1.2703180389254833, 0.6355011681954533, -0.2984356710923274, -0.4022899215971822, -0.5366404268123247, 0.8231244016664833, 0.025191903274544, 1.5175361283542563, 0.3696111506737348, -0.4806321621688906, 1.0423327430213356, 1.098875986566869, -2.132910373907718, 0.7592043314019562, -0.2851808701227014, 0.4804114112715212, 0.46800068820276425, 2.7090019473659184, 2.019086116729861, 0.7474034182399546, -0.5897085867477189, -0.8134248245767957, -0.17689686434453186, 0.5070475019762871, -0.2667781642372559, -0.8560620219978579, 1.5593148568891022, -1.0926888646283135, 0.7580424981657605, -1.199439969467994, 0.1763704781550424, -0.8757308415987771, 0.11760845626656423, -0.958168335581346, -1.8811146489414055, 0.1823427274870421, -0.5484922802752095, -0.0526349697724523, 3.1733905239619795, 3.334203517597432, 1.6033719963489919, 1.0128962309550167, 1.8445232062556762, -0.3361436284769567, 0.49875048880422795, -1.0778260770671824, 0.5769340599430341, 0.08652484860757291, 0.38378884838187516, 1.3347307577271426, 1.6717911886146681, -0.3130077315757537, 0.12355262918532725, 1.5477291028255866, -0.10788917679723521, 1.0033975572213907], [0.8876717808262652, 0.08864979057352633, -1.3245780959402302, 0.2383846452550063, 1.1966614601200112, -0.46484257027188, -1.1366727112923867, 0.2484946248806814, 0.3506928143980163, -0.13207671471324264, -0.5256451948154732, -0.584889332459948, -0.9292471979014248, 0.39841641960968166, -1.3559078555972999, -1.7115830531175702, 0.15859859636139104, 2.1324867288289617, 2.7213336098665635, -1.9728640480783795, 0.5398129189913056, 0.5431731800991407, 0.9637445310773097, 1.2537261342634507, -0.22013056376799153, -0.25227004044698087, 0.01003713940839754, 0.48028838228527204, -1.9569675522430627, -0.564484658307677, -1.163235822180662, -0.021175774300496716, 0.33107168261445835, -0.3664962494470602, 0.8604754069049109, -0.24659729953406678, 1.490533097267343, -0.39939137701024663, 0.3252062923168107, -0.6542808538079327, -0.01912275129904966, 0.9929416493373554, -0.1295965590136687, -0.1708304076874391, 0.7904280904722739, 1.0918159072154612, -0.40508326392063543, 0.5364439368681257, -2.1313146599852018, 0.2630766894332881, -1.2710579854942345, 0.9291001132966914, -1.9314128569290476, 0.02421534060406341, -1.213691539345214, 0.1881369570559398, -0.5722638992074314, 2.745117964775073, 0.12495397935004156, -1.0652461548210312, 0.6030536979033265, -1.0614676369216434, -1.5164304957203023, 0.32928250529485964], [-1.9836209428041778, 0.16713678370411497, -0.1788939995187421, 1.178239159200306, -0.44340798605665754, 0.7389539007599524, -0.15484845483449294, -0.08605564337254189, -0.3357568385230854, -0.1366293792823912, 0.09277642496734965, 0.18971879197958597, -2.048671922604096, 0.7837860781804775, -0.2329845615794952, -1.1844114274105708, -0.1977972902611956, -0.8546727892795731, 0.02359749586524577, -0.1704564684096478, -1.0696662666401626, 0.22583874577075078, -0.8676594983663888, 0.41841523883774684, -2.305258151983712, 0.1621555997620361, -0.5788411209471953, -0.3992846345441018, 1.4878944321336367, -0.35781685235193555, 0.35643089395408944, 1.0312821968019672, 1.5225430928104695, -1.0164811121806232, 1.1284147518659724, -0.9272485993677742, -1.1927713830291693, 1.3748594175398903, -0.7032369510661453, 0.24420707079596798, 1.0323459107790158, 1.6169399021897064, -0.05483023725936617, -0.24801134827199994, -0.3967249498631411, -0.033547027338664666, 1.0329180459160618, -1.9898222399382914, -0.2780337171101295, 0.7656954261085819, 0.7441495680026682, -1.7231933239653434, 1.0303924263130786, 0.05971477069293665, -0.9342158375564429, -1.0624411368884286, -0.6294458606293386, -0.3022844248616988, 1.0396388948858852, -0.9309696527726209, -1.277629080640249, -0.9443200259389776, -0.3188074229604005, -2.0842708835548924], [1.2703115446925113, 0.030877752980638058, 0.6531758521433048, 0.558346902284024, 0.13639753659343484, -0.33733841113672913, -1.337165050885127, -0.41149095236240474, -0.10777619396316224, 0.5229173631509835, 0.9561499786482655, 1.2033205926353625, -0.9762315218209106, -0.0751525704189141, 0.35280658284312694, 0.049037461548016935, 1.2860174671016282, -0.26722530141904327, 1.3242380220962733, -0.26759192177397656, -0.4694062226879811, -1.4257562814463445, 0.8054921061469411, 1.3547691398570894, 0.8255591814670258, -0.2586895904715146, 0.7574995244231507, -0.7044557030990274, 1.2113185073849615, -1.8422341740345995, -0.36824556412752163, -1.5479925634100813, -0.45167227065102006, -1.1375423986557498, -0.13587675227718632, 0.6343790937890923, -0.013557918030451043, 0.3758968273279556, -0.23658235285975457, 0.9791413360462421, 1.0937481979752155, -1.3836221562341127, 1.0101338828657191, 0.8726631262318649, 1.0376123351490436, 0.3025477016355275, -1.2981174812942935, 0.8478637181249223, -0.2688763993683175, 0.30198299200599726, -2.2719054986176683, 0.7576049876525334, 0.8760511854123076, 2.1562199933480133, 1.2887025562956078, -0.14253519602584672, 1.6659047027918155, -1.380114296433079, 3.85793967348964, 3.075573893432424, 0.830819563694863, -0.8782681675417305, 0.13986220576101485, 0.7125389403746353], [0.3596237434172795, 0.7127480011897636, 1.0687856807518747, -0.4951739548431622, 0.132962280436304, -0.08289852500467178, 0.21421904746683115, 0.692696057131838, -1.9081847831366037, 0.11653331605849324, 1.7551741656764832, -0.3955656348590421, -0.9325834567618385, -0.6735645547992268, 0.714532047991697, -1.790003919076157, 0.22430285295477725, -3.209955381978046, 1.5235848315795288, -0.0696156591485477, 1.3655901991926498, -0.5586953357167566, 0.2753934759411781, 2.4009183113212806, -1.0110351209554707, 0.9425068791712249, -2.221510823700524, -2.585767588999438, 0.6889213621579444, 0.041274574202699865, -0.49772668445684926, -0.009847287471481413, -0.5176603237193814, 0.30217682520827216, 0.7734409975442094, 0.988208848486463, 0.017600206923097966, 0.8198061540197786, 0.687759695794799, 0.39315819224910903, -0.5108631934878929, -2.752037662677927, -0.19206908223922012, -0.23406889069910192, -1.6014139415281856, 0.7910261496852212, 0.012866884184724063, -1.3485118844184532, 0.8660591728218054, 0.7912949804001552, 1.176952513690748, -1.1654317335035704, 0.5382460975045578, -0.8428605517089753, -2.874968879865529, -0.5285056361126661, -0.32108899071015246, 2.182275910834502, 0.32870245607283527, 1.4480014208760492, -0.43728724254382445, 0.9114744851303214, -1.1268282836571295, 1.114733892631557], [-1.2265674316518074, 1.3552725615328403, -0.08885766708388806, -0.694949123737318, -1.0144720406973653, 0.8712160137184647, -0.9194792276680201, 0.2876311214263635, -0.5327923727826095, 0.16564178605539887, 0.016672373423269438, -0.6314322515594253, -1.0040158066788205, -1.3120985315266447, 0.44682624679647864, 0.14853198602056514, 1.8363081603106133, 0.1396675784886334, -1.7651938506826501, 1.4476040528943543, -1.1417786944082575, 0.7464021537026985, -0.46902780374760905, 0.7869814652437135, -0.1820208348243829, -1.003380717730042, -0.9369221110721804, -0.9442706004373587, -0.7275212508545039, 2.0654861372867295, 0.1360612935062583, 0.20181386383006028, 1.2707549044789055, -1.0034745347115275, -0.7323378102483927, -0.6479921130452116, -0.7855214383236936, 1.7347311831934773, -0.44615385943239716, -1.2399203282859266, -0.29178644639701495, -0.6601392708428152, -1.0917976649357448, 0.5648569127221107, -1.9445402822954807, 0.26393122365044175, 1.5387536595031532, 2.397073067233959, 1.5562083709832442, -0.20268282272443056, -0.1089062616381093, 1.1352016674683758, 1.0097935422904265, -0.9134206948382958, -2.2292589330885986, -0.46273031364217426, 1.6282076357873105, -0.0758997670485449, -1.3945327153213618, -0.7799983027126963, 0.6986307702990094, 0.4729134646484038, -0.2724518087709634, 0.18479275551351085], [-0.3389835320929106, -0.14231230753550203, -1.44904592785806, -1.3227165003614927, -0.7109024225989671, -0.606184110109761, -1.0722422723792842, 0.5454540297228883, 0.5391724452767099, 1.1988239385167685, -0.07684033970519674, -0.6933878511104847, -0.9469760525902353, -2.268619962246101, 0.21359010083019977, -1.265057694018798, 0.9636968648987307, 0.5183435151558969, 0.5900261263151266, 1.1311811909202247, -0.1090739625676252, -0.05816611715256052, -0.8425159924738271, -0.7529456042925735, -0.48256531456153773, 0.5245478462345327, -0.2645836803644654, 0.3530051834614323, 0.2238241190906629, -0.37219899010144253, 2.6474189892831026, 0.1332902420274303, 0.8100978673990902, -2.066453723784956, -0.3284080793917298, 0.2854489945462638, 0.9127282586749043, -0.8853951972314839, 0.662893215100046, -1.548077411041423, -0.5558744255462802, -0.20939878024355807, 1.8398709351830922, -0.012035767922212968, 1.544249561568332, -2.185153803257982, -0.9052536407792096, 0.21306591909620448, -0.9657156624472774, 1.0094897718684082, -1.0122112207459872, 0.9050528629328798, -0.9129893226159165, -0.45036832301510676, 1.0407174952822522, -0.7555250892846609, 0.42441824827810354, 0.06644430233106957, -0.08799540550164092, 1.954430088902813, 0.5679433816499357, -0.1016379743818435, 0.0692509618345264, -1.1616019467282765], [0.32702615652721884, 0.5673334205644196, 0.9015922583874204, 1.8771428706377922, 0.4306132751340653, -1.190784254860191, 0.2262121311410064, -0.5693165703158743, -0.7322607097367665, -0.711741585516688, 0.05687216122626013, -0.8234988716333305, 0.30663585257868975, -1.8338737352874381, -2.89224040536514, -0.15859132011071364, -1.5316018230959503, -0.5779462669917929, -1.9059055368464786, -2.008942616762241, 0.23889598302964352, -0.5084528851522548, -0.04826170379593097, -0.03502705018890768, -0.7273069057149364, 1.5183620699261768, 0.36102541634537905, 2.576977679031155, 1.5873212424728582, 0.687677616154882, -0.018212347104613166, -0.5895820679190702, -0.7301662802248373, 0.13438281144361666, 0.9715535632493052, -1.0583794427218747, -0.02860552628379647, -1.2522775141080984, 0.10659762229930982, 0.5422573331869172, 0.9912188508026412, 0.2872129861981349, -0.6359698186412605, -0.3785028025591672, 0.01632286834064877, -0.20958795245614859, 0.3214442712943701, 0.23351936921649144, 1.0149522887472011, -1.365343241823016, 0.27653105409089324, -0.9552158838227957, -0.2605126207976518, -1.3274909827312888, 0.03730765585464991, -1.4526406739111428, -0.8276017374999237, 2.2921936458109897, 0.6278876784461687, 0.9527052435093047, -0.8296277386100398, 1.1604663708722944, -0.3115251054922687, -0.5393910228200474], [0.540432755366913, 0.1406950564673274, 1.2382624131362387, -1.2855738604138573, -0.7804341795136254, -0.4661721263852442, 0.096940343318409, -0.45823039827601697, -0.07936631605575531, -0.3182853136155345, 0.9195436457578192, -0.5611773427197669, -0.4101120092081721, 0.06812570823584903, -0.09891912036094928, 0.23925986087456783, -1.2674959941594357, 0.0915712442891479, -0.16935301763051838, -0.8856978941958283, -1.645607964622266, 0.16979751913292426, -0.1378586963310319, -0.07149411774529733, -0.38621990548929036, 1.3449502719441988, -1.081258571215189, -0.06307879670506915, -0.50356048600791, -2.050905763049373, 0.087257980752205, -1.3294456177962388, 0.7563768879274201, 0.8242892015046335, 0.37967322200031345, 0.5242236519537231, -0.45271329511708064, 0.687592786751324, 0.9167469515279244, 1.1197161016785873, 1.2635448363305384, -1.4561055975293318, 0.32128693891873533, -2.4370266994140035, 0.9733737109300644, -0.642481126749871, 0.2928325635717791, -0.46398126201591683, 0.38673364020325446, 0.6724964425333426, -1.0909759530149077, -0.5270034201986623, -0.30440284592936967, 0.770818433376395, -0.23575096986827987, -0.17778292517384178, 2.288635291333243, -2.5289475108846857, 0.5677535540962639, 0.07355255089438108, 0.7483241867237762, 0.9146566431112833, 1.2522315626273022, -0.8847286012386693], [1.175609480746336, 0.4796962084572591, -0.5899674340661235, 0.8621689184981023, -1.4726571262457677, 0.6523101983645719, -0.1516899652786653, 1.3432368831212602, -0.6594840624629351, -0.4090657931046078, -0.33858048238968697, -0.3966186853856485, -1.4582418462866669, -0.010906592167949567, -0.7665729756746352, 0.8421724903224964, 0.7918792014178204, -1.317627725338646, 0.013153036557870796, 0.15323002771333824, -0.7863950304118423, 1.3681052191345213, 0.004008795533567026, 0.453194204359973, -0.4063786899313203, 0.6841194893268114, 2.883969251775838, -0.5881887751399346, 0.36522540717596585, 0.3231095013887879, 0.5824042646735971, -0.008457486200020091, -1.7236514338073596, -1.0255372547670172, 0.5349275937487872, -1.6500251948243565, 0.6689473090641462, 0.2803223035037342, 0.40271751266444333, 0.59519151467352, -0.04489492214522473, 0.6453464430821444, -1.1274591498928925, 0.2245144207327693, 0.10571095020938731, -1.0013467840435817, -0.1861816445428681, 1.9979515177687335, 0.5725567515972323, -1.3687162010707115, -1.1577200461261594, 1.0658262297925543, -1.6549967992364703, 1.4771353822876396, -0.9328609421342365, 0.13042091725382485, -0.031028697570925873, -0.08768373982573438, 0.6177594707762792, 2.8857517953922764, 1.7598211003608997, 1.0913309075290665, -2.2134606073911924, -0.023980761898605114], [1.2372535126873845, -0.45619206614093344, 2.124745399513117, 0.2407422845881994, -0.05864391264016893, -0.8739999199474732, -0.12278570026442888, 0.9117965623133085, -0.10746411474278562, -0.7274708346047783, 1.5957629012804186, 0.9877470273404159, -0.4881110169164618, 0.6296948056302356, -0.4533996984310992, 0.6090995914299342, -0.8522489506584864, -0.05454962931514019, 1.0907946273414781, -1.8463416145538356, -0.41243382161399256, -0.41546602951164513, -1.3017565892197434, -1.1360989745400003, -1.7976375781681988, -0.6615569434901911, 2.5492856987737014, -1.6376756241371526, 0.006317661817300752, 0.5417126512741955, -0.13210003839031914, -0.378736298456714, 1.9406228046678644, -1.0418743710911664, -0.28559377932836866, -0.59892262579212, -0.3823403780460225, -0.9859808115749349, -1.3644765720109107, -0.823533424001803, -1.6813868155498577, -0.9162199391704404, 0.5436279322698345, 1.5248626005482613, 1.1974173477959238, -1.2225052973966217, -2.023763530020729, 0.0537117476660896, -0.5362903624231383, 0.10714253527293145, 0.6151521853927577, 0.9050654404010442, 1.6525856413988107, -0.8428196875999223, -0.06340532135397717, 0.48905360189011937, 0.7045354278052993, -1.0717355675879099, 0.4137586484133794, -0.345025274037323, 1.2401898182121198, 0.10342901781618742, -2.1418516144035475, -0.6836501416815086], [-1.1807980275906318, 1.1810021618172988, -1.0660552581621128, -0.7430459223148423, -0.8859252495127169, -0.49581833514279516, 0.527387687628702, -0.30175139488690217, 0.35564438892659067, 1.3281321131436516, 0.2380742569517034, 0.17185882517030615, 1.1167682468088798, -0.013688855208146944, 1.2829097566144694, -1.1299710458171193, 0.7587214440890531, -1.0986042355701349, -0.3029040483924579, 1.49961056170431, 0.14614254213307512, 1.9034164161920542, -0.3062063943698761, -0.45706533906364627, -2.38861407368411, -0.8617991799058063, -0.5343938353030584, -1.2626042854762183, -1.0231988412194268, 0.5384660112416041, 1.7165027742351253, 0.17912390469970796, -0.4559683500449692, 0.32669169909966733, 0.6819648840132921, -0.7379887070817857, 1.3263448403293359, 0.9270035239969678, 0.21309224825039347, 1.3283330921381156, -0.2108673539727271, -0.6769151658288148, 0.1351177762474505, -0.16425303413718284, 1.099720527820615, -0.5857366554551754, 1.0326537546555192, -0.786824522255031, 1.617741961423047, 1.7668617516726024, 0.026714277801613007, -0.6938752020747251, 1.9753281712575461, -1.2203869916654786, -1.1314983848532563, 2.527070920782692, -0.7368148416525208, 0.2499136810467275, -0.4072015719616529, -0.5283333516589073, 0.7000452723146847, 0.07455981071053643, -0.09180805144899466, -0.8105601159173703], [1.9998578404574014, -0.790472710889662, 1.2720349278692757, 0.12340670941539608, -0.14471976544476078, 0.06339992712334852, 0.031047952046710476, -1.7390992728519505, 0.08649405653783686, -0.49104596911569837, -2.674354948547689, 0.6443593624326104, -0.14505356097389743, 0.8116910518786606, -0.24481231922778438, -0.696350741910387, 0.44909883424446956, -0.823087860995007, -0.402495596969506, 1.385783766454507, 0.5845207431072055, -0.24814981566368804, 0.32847783781427603, 1.1430734254415746, 0.7158372997438407, 1.3508013650170736, -0.17345609362160444, 0.03192366589002642, -0.8603704762851204, 1.4178789398571483, -0.21636159151507584, -1.0154893571166628, -0.7259753124258116, 1.2277054932407083, -1.1264854630318841, -0.601702497867707, 0.26686482080895313, -1.0280706824933712, 1.6204683987456092, 0.07902571896854252, -0.5695736471796179, -0.14829295739477777, -0.1504880604676619, -0.887961134764646, 0.28675094725200034, 0.2859729425182367, 0.3074302518646544, -0.6575191404509574, -0.1251848370827014, -0.9041652092433549, 0.07971000908831376, 0.4892337648335795, -2.267876921091358, -1.4363920287788075, 0.5923394212109696, -0.12518243894874598, -0.5372191508425196, -0.8699566545276876, 0.2098594845826785, -0.6514435841992149, 0.7644150970416564, -1.0594997311547119, -0.23003580655162623, 1.8847060544535634], [-0.5498117799824236, 0.25069797962239826, 0.2629482684151777, 0.40492907257520244, -1.6024845301638289, -0.06048301501585981, -0.697530591149039, 0.1503781049950916, -0.07780687825586112, 0.1252126858419551, -0.9984660716843727, -0.255975214092637, 1.479116981117545, 0.4759463602670577, -0.18580560212243427, 1.0540424748134019, -0.7858761582110539, 1.3190200056340993, -0.17228886477186073, -1.8460295965152045, -0.7247573669263252, -0.013805770284701622, 0.5844426958957524, -1.079448951686073, 0.7146958272683516, 0.22357751470350606, -0.9060867789442381, 0.21453403707113433, -1.4313384494982322, -2.2704132021611114, 1.6680351279664263, 0.6877174913431068, 1.4692083028521956, -0.4470343315836607, 0.9692133398427439, 0.8466872377493828, 0.6108180939736211, -0.6652888855585158, -0.5390686415774785, -0.5699517962545901, -1.4893434370374596, -0.04884518704139992, 0.5499305970570395, 1.3048378295965286, 0.5223109585785488, 0.8438100462780511, 0.055686488142052015, 1.563792608618236, -0.6380407350109051, -0.7047392202425459, -1.0466273798176675, 2.049778771444076, 0.3899429971033616, -0.2279594058376745, 1.2652993760910154, 1.6850310129308619, -0.4307541449118705, 2.4944056179800698, 0.6062782036825521, 1.897495684900051, -0.3652339819814644, -0.3501200079640903, 0.8968935558620045, -1.2961422703619865], [-0.7661022207718267, -2.2362527882016288, 0.046327557310846944, -0.05535106725613376, 0.42491286095294456, 0.6228215147539629, -0.20458977846842988, -0.9035207258064066, -0.7077880082031884, -0.28824269480756903, 0.3752751708285271, 0.04209531864771717, -0.0899568402734146, 1.3144282945889445, -0.2055219060653654, -0.9611185195569437, -0.8770797047105753, -0.3493805390110045, 0.6595634650916563, 0.6790203045104227, -0.4093739891492758, -0.35331772809174306, 0.4293192866086668, 1.3487878682901, -0.2728913561712938, 0.18393634027606567, 0.5588657879489666, -1.3713232471471188, -0.33064387147695085, 0.4522332723500524, -0.5305183143587244, -0.28145821900384405, -0.6441278738693271, -1.1300262257452833, -1.1617665339422667, 0.16933309281863, -0.059698139612798386, 1.105836446597426, -0.6618912758728542, -0.35850443734187276, -0.07117035012372852, 0.09786380091576943, 1.770668260834617, 0.7161109143496656, -0.25203469271235573, 1.668179441254334, -0.833481645415412, 1.165181781246556, 0.16824138572933983, -0.0970197604214342, -1.108371640458861, 1.1631257343736865, -2.204226920077547, -0.12336287720355432, -0.4391047192362273, 0.6299876168291397, -0.8695507065224324, -0.6080810819389247, 1.1993328107538388, 2.7250208073497655, 0.45076298555579936, -0.8394777244112416, -0.040195475275759104, 0.8850898918686639], [1.5860651416439473, 2.02577923393804, 1.5303010308595233, 1.8327334301292564, 0.9689045577333327, 0.170770931967963, 0.7079943796338916, 1.3016102245353771, 0.377426024051308, -0.787901129200937, 0.9282123550423084, 2.0333233170635046, 0.5812629099886915, 1.560723423781778, 0.07371157701560777, -0.022356711144941453, 0.6855820937261274, -0.22007309599774338, -2.068890495355913, 0.6336131127287113, -2.340925516401822, -0.4198460795464502, 1.0173191686261756, -0.38910754054643126, -0.7372621615773305, -0.006598203487616498, 0.27650295204355396, -0.5852677365383244, 2.2812721074024944, 1.1535198870555938, 1.2972505366193468, -0.22290652406605962, 0.34421346303858386, -1.998282087632246, 0.5515401814060694, -0.8347002345785401, -0.8106258122291109, 0.10382736210532115, -0.2885403301648238, -0.9294976841312648, 0.4487887875734142, -0.5560681594651091, 1.3099523237532418, -0.6863958655184795, -1.1332472710708152, -0.16433173228337156, 1.0604911834109119, -0.5296495025503906, -0.4208166097429164, -2.593049387823186, 0.28768107786745795, 0.8101916422542774, 0.10193764725371153, -0.2805096318513892, -0.5777727170864493, -0.24321111498677203, -1.4925201736211136, 0.24204583536789437, -1.4130407277334363, -0.9453346120985947, 1.5221528599715186, 2.000672024084738, -0.6563789851711918, -0.4729131940164531], [1.746256318275166, 1.443087583454784, -0.9194491847633625, 1.0901528926431487, 1.0925633619786013, -0.32415019818829954, 0.8237126081224749, 1.9550554438780816, -0.6511305169582245, 0.968886848221698, 0.4202392504617797, -1.7077148903852681, -0.005924072251181685, -0.7404970062580767, 1.3521367585609907, -0.6449885420999844, -0.1551428089500599, -0.06865025280146782, -0.43232000255589664, -2.197691926666584, 0.892257884749868, 0.14386099595965895, 1.275597323305137, -0.46898715506363886, 0.4741248277718854, 0.66839521890313, -1.2047158798971238, -0.8511320881692872, 0.8991245292770655, 0.9371915337062796, 0.9535866516994639, -2.2051034645754948, -2.281305792694086, -0.6116310759188245, 2.8097011435732293, 0.17584571165005292, -0.6307555906525206, 1.8555455403701624, 0.16029074988453906, -1.4228495469631228, -0.3676598535224105, -1.8862883675077626, 0.7548220931778789, 1.7812245781622742, 0.6526294599846313, 0.2375037940405147, 0.5942014265411584, -1.1329343313282814, 0.4974278727895833, -0.24423451883692596, 1.0406815179638391, -0.2670710335696844, -0.6772836861850628, -0.6716078230151616, 2.6256144457846546, -1.1168006401508905, 0.9362535725466031, -0.5661823837482267, -0.5053469214826972, -0.8664172853019196, 1.397031114430776, -0.8619219742938617, -0.11515634319648775, 0.010536697447195188], [-0.5196163599941902, -0.24957125769621874, 2.2436594507282206, -0.4829965988829622, -2.3689801750315524, -0.9215808226333405, 1.5190033138842483, 0.5524984188665393, -0.6926816136990898, -1.0600082591583286, 1.4671555504106528, -0.1679131727874871, 0.7597959068113311, -0.2086217318530937, -0.0482216355946755, -0.18337459189215918, 1.2830307747086311, 0.6847631554909649, 0.5078271760432795, 0.41614597578860496, 0.1429569524514458, -0.06162756634039431, -0.31480674559033817, 0.6610574334671373, -1.094868489559057, -0.3473542636872249, 1.3583611934492914, -0.2980589001770356, -0.08008290659022492, 0.49468129909971936, 1.3733264119781319, -0.9287657608462492, -1.0562806080043665, 0.2022550669003972, -0.6782509079000207, -0.022012467048051917, -1.9003696914644261, -1.0239364192571805, 0.21506804700839205, -0.5266982026448499, -0.524434980542717, 0.547052797574943, 0.11873192576862872, -2.3053224234261527, 0.719991138685963, -1.2845045596199125, 1.3569787876682777, 0.48468627798385755, -0.2561154143302568, 1.3546263068343696, 2.0759505803869307, 0.6668801993571806, -1.0137197024379423, 0.19659506908435523, 0.2108731700382351, -1.5523887064375035, -1.1106346720321985, 0.4504456177691022, 2.2803112732391826, 1.6925906279849425, 0.8841718182048186, -0.5384799446573829, -0.37667434221349183, -0.43238636618530835], [1.580659829411814, -1.6847064151587414, 2.135839579661295, -0.012045236853271031, -0.29108659019024025, 0.5624562546330725, 0.7315635547473112, 0.2080936834521666, 0.14688445026802582, 0.5095493726194038, 1.5405555309799355, 1.6862402750755072, -1.1769248912579864, -0.1895277822930986, 0.034288605346101064, -0.3339099307005731, -0.38212536558313037, 0.9727972485358709, 0.30867526144867835, 0.45675680055100876, -0.3597035854371358, -0.8476549112820619, 1.2116386663488123, -1.5451347924726995, 0.6830976831702715, 0.35618373486097415, -0.11846930012185257, -0.12660063112597814, -0.35432027228237667, 1.6226344780340827, 0.4878147649765918, -1.1219892377344292, -1.2718116679596179, -0.24320231504242704, -0.5666412777157238, 0.630742979769623, -0.12917328933680922, 0.8308526010187456, -0.9537377215409267, 0.46020710543895615, 1.6608354030583428, -0.7640402478085184, 0.12771181052702799, -0.8291825633597693, -0.5004744114139862, 0.6876259510533493, 1.5345529929213104, -1.0372415290485972, -1.1409669611458368, 0.586065961267128, -0.7203819922636215, 0.3136974470241752, 0.5708166717972424, 0.9114872277854996, -0.3022998396168013, -2.091922245950683, -0.3783418745400049, -0.9778311716440287, -0.5024439301629023, 1.1137324694427062, -0.6702242261982462, -0.3544401787737543, 1.6359138753477174, 2.929660893432376], [1.0249635446624175, 0.8263678474871072, -1.204722529676112, 1.103931098477063, 0.41080891898717925, -1.1632958763488586, -0.711126068648103, -0.7776883945882607, -0.7014811472600427, 0.5167863504871545, -0.4143994932544478, -0.5615847942521986, 0.3437170326220349, 1.7475220863842662, 0.5398998770150264, -0.49519737438896855, 0.46301689909689936, 0.23737629933432333, -0.5918632272605117, 0.6551705283348923, 0.09451199914284816, 1.183412573203491, -0.2216084475817371, -0.7767689612363475, 0.05633894424120396, 0.36247267480026046, 0.43035789354356024, 0.061607686265927775, -2.8186530025073595, 0.827177562356735, 0.8621190134296215, -0.5240201725381137, 0.5558064722220939, -0.2997158513385201, -0.8570825503940438, 0.6675880922360743, 0.9417552666999109, -0.646962111575448, 2.297885578997527, 1.276247945989341, -0.47009316461768835, -0.7192061272862257, -0.15806847832806897, -0.5482813446368637, -0.6950098823438737, -0.5080798628815741, 0.8451070985370979, -0.3641863572992026, 0.10415185780639113, -1.1327291781835451, 0.9951843831205078, 1.5038046653372112, -0.35779084437972, 0.43925107369417943, 0.9761767931804848, 0.5485566605075846, 0.27987375745446136, 0.4605439023890654, -1.8155995691953226, 0.7389509974901849, 0.33409134205811086, -1.1366259127066474, 0.33687080618689497, -1.93022327109422], [0.9404548194318197, -0.07844206283832174, -0.6885408976578092, -0.7230597875372071, 0.814324613537393, 1.2140595171215174, -1.6119503393696952, 0.38265856161425904, 0.8459134704189475, 0.32351256640857523, 0.17759075527122256, 0.022725782621203446, 1.1092738552242762, 0.7463122829548583, 0.8493202690407095, -0.7171971284211488, 0.6271956315522539, -0.844608668797061, 0.12548690045124972, 0.01971106661270503, 0.3312851879047735, 1.392872207641418, -0.365800592740796, 2.2751079842809023, -0.41089883250021403, -0.863695134710848, 0.6091057104482803, 1.2619572530223984, 1.2455241795966359, -0.6045175428606584, 0.2092762944699149, 0.06886762106070753, 0.920622863636502, 0.8686502617410066, 0.11248681150043587, 0.5333662646860791, 0.2657401234141504, 0.5106942988951843, -0.6255334005329436, 1.1907316086258812, 0.6701565503321437, -0.5369047713298828, -0.8750993854125558, -1.3820347260227162, -2.6192806035910072, 0.5861653271698655, -0.7624907593835051, 0.6397705674189378, 2.1560252861535147, 1.0854940115848073, -1.5795988238989795, -0.0843840216296024, -0.10678367894303217, -0.8713026470236783, 0.7085263301324782, -0.17704463664703687, -1.7077448427289017, 0.49356800079005453, -2.2668849557948265, 0.9592831641658773, 0.9973927328851383, 0.12372879270054708, -0.6987088119151889, 0.29032122469609184], [-0.8707192095484595, 1.4456183940991385, 0.4949902726326138, -0.8451664655381013, -0.2628130337984583, 3.1974829539733727, -0.0010588423370812654, -0.37829745272534815, 1.0110108162654712, -0.6334300503835257, -0.5856061645692245, 0.7771447267055485, -0.7685061144460843, -1.2970277152025405, 0.7375706675328788, 0.7529184295240164, -2.306182941147614, -0.809273033397095, -0.23693404546697278, 0.3239072506712229, 1.0720688438114894, 0.08645024003597679, 0.12369973790391253, -1.0622293344492408, -0.8347039847535137, 0.8983820725024066, -1.1004879462237114, 0.6338708137850724, -0.9152704846639929, -1.297471755359271, -0.4322117530530746, 1.059455516811933, -2.1595920504682318, 0.2736075032324234, 0.2178924553288528, 1.0759409181533681, 0.06937008395653746, 0.46665199638203264, -1.5287869947378168, -0.9256383920977915, -0.6631329812615014, -2.274070053731467, 1.1667980284973485, -0.7249330776348837, 0.7411405179848544, -1.0020134142607244, -0.7316650418582739, 0.5963143554325262, 0.5363444440333102, -1.379225616134922, 0.1390867505544731, -0.06451309551365764, -0.09527290234272089, 0.3379535699933314, 1.5807860908438993, -0.6953396335230776, 1.5870889370740489, 0.40043811487947506, -0.6418145875587414, -0.6926221975020497, -0.5627558800719191, -0.4694866980716366, -0.9429787966287079, -0.3586531509541748], [0.5813591730005884, 0.11220827271785544, 1.5988127102205738, 0.30430567959512733, 0.9287687328933728, -1.890064241013992, 0.9911844589581342, 0.5476098176306101, 1.3874400614164746, 0.8696564647003973, 0.5418393251037328, 0.5706552646301977, -0.2677426807372017, 0.39242735549607893, -0.7126300388983264, -1.2510825198094822, 1.7893962060023398, -0.38542737502404606, -0.33937719999794, -0.4653767839296524, -0.8543980754353178, 0.17840259925316965, 0.23731164772086588, 0.7427861661062981, 0.24930998597507595, -1.9315293250980572, 0.7929518975841817, -1.5376848226493998, 1.3897142939008622, 1.1836559269554183, -1.23787039502056, 2.135545601595113, -0.1667210430129357, -0.7169675793179096, -0.4438538195629017, 0.6325447969724978, -0.3704887551777182, -1.9260882651788052, -0.9895111468738925, -1.0938410824485512, -0.01527361681359736, -2.2724393778493805, 2.5707645107660437, -0.055598926892828825, -0.7091400944632673, -0.7448891733298583, -1.1604505895963486, 0.29442208903978195, -1.0099153635800724, -0.08405908275243704, 0.6364125215344348, -0.12031642840440407, -0.29672975912512006, 0.2543420370586476, 1.6347076109296752, -0.7216707082208504, 1.0219251961145952, 0.19299500589830051, -0.47729389928282157, -0.27166980167059496, -0.24751855177125084, -1.1322412716856916, -0.8110222905403106, -0.10473605798933078], [-0.035928362941471184, -0.6534723222613076, -0.8154578692172377, 3.2529008023011587, -0.32230874972038603, -1.5958813690320397, -0.9471392661729446, -0.4661557022161254, -1.1963099714035128, -0.6788102101595077, -0.2281547965833843, -1.4737655176136435, -0.8116419957449114, -0.093173526942104, 0.11250426233136833, 0.09207904862564406, -1.3867146526153864, 0.8282908984570213, 0.009430420454783334, 0.38416436496131556, 0.7831220308214599, -0.028677866459869465, 0.5748209312636592, -0.22085148462505744, 1.483178916134393, 0.5384714676400842, -1.93736462781153, -0.7742446220627313, 0.9863681649066736, 1.1375377820834534, -1.328483968518206, 0.9314007484353164, 0.4152987016284749, 2.565917360177608, 1.3110909185719273, -0.20429550994058496, -0.5277830403219427, -0.05624642393738156, -0.18726676450257188, 0.41535786515366985, -0.180323324487924, -1.2377573117811096, 0.40944806598520256, 0.9710150739398405, 0.055893360103507414, -0.13442562190597213, -0.7935082792305357, 1.2485130631114325, -1.1446482896282357, -0.922849593193101, -1.5573740255791648, -1.153885792720572, 0.49790841207097386, -2.338273386722357, -0.7735959733304064, 0.6807164316349167, -0.7210278452213854, 0.6232216740312264, -1.3283248730961463, 1.8356854615940046, 0.596469164632437, 1.11694972800202, 0.952868090977543, -0.5457976028267867], [0.5450784715193229, -0.9275320032879893, 0.5568882027647745, -2.6545414330136725, -0.24928762363265858, -2.533714900686942, 0.20604165648494577, 0.5416161166668478, 0.5219979705833208, 0.563949339433897, -0.05818985492234962, 1.0778035873134737, 0.6791380636681086, 0.49256225202705956, -0.10405164557505987, 0.07530237581078959, -0.38465598282466923, -1.6645104329617095, 0.39058426076124503, 1.3925260779906183, 0.16841451395907342, -0.3925687758796, -0.30229931902300344, -0.5383113936858084, -0.40544947525878355, 2.308417411264717, -1.161481950236712, 0.365229811440301, -0.3876465197231077, -0.32107571525219936, 0.14753580887585138, 0.32032143845469147, 2.4540699865725952, 1.48165499306989, 1.3912563489889982, 0.6065672606903332, -1.3270484988969211, -0.3071043136579491, -0.9436975883785224, -0.7878701909688464, -1.041432014546035, -0.9819405159147886, 0.850917690412449, -0.03764483160530487, -0.10897822398419477, 0.2702901295410002, 0.23171425886031422, -1.5288911390500588, 1.4864063190360182, -1.6282177718096182, 0.8515169424047723, 1.5754546206896403, -1.751877375915603, -0.6674561400646665, 0.6228160705098441, -1.37673177011338, 2.257105652325047, 0.36492588017405486, -1.2768418032135684, -1.4794523507233939, -0.1685525212259554, -1.0534077869037715, 0.44210387411914803, 1.9197425585151304], [0.9729328493326022, -0.1293144508869995, 0.6322480767243195, 0.6500211894577178, -1.0413287186178035, -1.8994347398217741, -2.2513351691435166, -0.5091252178684762, -0.4773688571263915, 0.8826732417762103, 0.2220474489058974, 0.9023035325256057, 0.5047301964557872, 1.27770675903322, -1.91867051463498, 1.2395346950463286, 0.13276628757162603, -0.934163742863351, -0.6753613928234674, -1.1173468591748723, -0.9193386835215931, -1.6450597503739999, 0.49964503885837985, -0.14793977663719407, 0.8010132025641555, -0.6561683914188803, -0.7303432134669876, 1.052612213798156, 0.20588204620130146, -0.7089437447106754, -0.27750871888408135, 0.5253208656130269, -0.10263740350804132, -1.4718024022204228, -0.1720016407720518, -0.03485269020051633, -1.1259395963309522, 0.11353638062792963, -1.8022338122384196, 0.07794539839355762, -1.6455630924194975, -1.0832724606105695, 0.27391970907521396, -0.22261666691449442, -0.6712985654658538, -0.4248872082482339, -0.23156601234163043, -0.25204009950055384, -0.03998527731893999, 0.08845019567417375, 0.7332010817000086, -1.7952223314367777, -0.8608340520871763, -0.3592844573981156, 1.8615079791293867, 0.07567969491410388, 0.31671759658978915, -0.14088196706510941, -0.7959490828613497, -0.1957764631453973, 0.3164135992879402, -0.8404959717607442, 0.6950459152988785, 2.5743774170572635], [-0.03850183629652526, -0.8831810933826825, -0.13261465381720608, 1.245927327198678, -0.029215350616095467, -1.2447555297812523, 0.7090071647807351, 1.0932651544462924, -2.1179586882142183, 0.5546032137785528, 0.373804500701193, -0.9447523971864591, 0.6579063466555688, 1.6907271573797713, 0.19795807338872481, 0.46313191383624364, 0.16805519074751002, 0.1433734811754914, -2.102572569565361, -1.5345185879811143, 0.5422009876544758, 0.021137383803465484, -0.3913427396826717, 1.1754220486327704, -0.1624128633612627, -0.32967599007509585, -0.6698999135505094, 0.7957538616832794, -2.065460023750255, 1.6479521897098153, 0.7916568619310699, 0.026047949725217002, 0.11980403894989199, 0.4003349452088214, -0.532841258887561, 0.5515228283280346, -0.04328498355773543, 0.8360216198318237, -1.1019079628019965, 1.8392396126142838, -0.8392787196734521, -0.9032612795228153, -1.0360155745433912, 0.3584184300730976, 1.6113278152934578, -1.1228714088538807, -0.005736296164647489, 0.6785975071445122, 0.7355141369648618, -1.1163298319323551, -0.42149791592154057, -0.8111909845152905, 0.5133516206804658, 0.5596049961465585, 1.2372073277017173, -0.029767490708398948, 0.6416766584030617, 0.9613836526151365, 0.021426850029034692, -0.26229033898779025, -0.8915907659902134, -1.0470853844510801, 0.7256572920466966, 0.8819141124077602], [-0.24574077501449448, -0.6757986185783482, 1.2732961690694489, -1.6422409059255298, 0.11342576959257727, -0.7695159796932176, -0.9805822175698738, 1.1710835036186504, -1.022439014153252, 0.6323801688030679, -0.05879930999668546, -0.9621286662467072, 0.8865990603268918, 1.2650377385436393, 1.9715212116479575, -2.194508803044697, -0.057433473373490536, -0.5245170611148295, 0.38976152676692705, -1.8915231712948801, -1.422653305437163, -1.2208600182797968, 1.0533466475472533, 0.42840060230529514, -0.49295571686581857, -0.8806309088471742, 0.5922088885647733, 0.29682919133623076, -0.16467980281744263, 0.2809370647501584, 1.555888799783944, 0.7458685849761907, -0.13393665804209826, -0.22214270831377508, 0.43052180752145397, 0.4102475225820112, 1.457891544806671, -1.2523484066972168, 1.3078130817146612, 0.5956840523360536, -1.8473075659892315, 0.05745400435124221, -0.4187251839163349, -0.7501323680171557, -0.35339746345380346, -0.5447691136683901, -0.6908757450709337, 3.6952997783501327, 0.2540683382751721, -0.6497124569242408, 0.585573607109268, -0.26597152644485383, -0.0788291979323768, 0.7279390358755751, 1.366949742955891, -1.6668805022599866, 0.3378011936961394, 0.2079153346487379, -1.4988550541024916, 0.9240925660100396, 1.10919976721021, -0.8273725927527698, -0.8323621287038554, 0.6853887592652913], [2.0545326852812407, 1.3910864838548966, -0.2809232061201644, -0.48057596253157536, -0.24394028298366904, 0.15383110884472104, 1.9209391740285784, -2.471385542282654, 0.1798731371545325, -0.5795073006729192, -0.8735195279560218, 0.16597253072044424, 0.12864079034853612, 0.004739821932777124, -0.14454495683807528, -0.9552885645951718, 1.4737155224727905, -1.6829282968038337, 0.7205167404505212, 0.25820545739708217, 0.7295539837812798, -0.49036321851585124, 0.15571555789835304, 0.1447498147110094, -0.5560116328869547, 2.035112955294972, 0.6657168027518681, -1.1608780143872193, -0.2272470773680726, -1.1455605077655542, -0.09382341620634098, -0.38713935944426353, -0.7917222269620469, 0.801759770989161, 0.141568200123504, 0.11944449842230251, -0.5947131506390755, -0.9110894569987914, -0.21406430482932137, 1.0320175821509128, 1.0826263769551498, -0.6898432731353442, 0.10189135481818157, -0.7470853046062996, 1.7887899813212826, -0.6998980011621436, 1.0263267172366544, 1.1820482266236412, -0.6398412692249618, 0.6930439757683763, -0.7353984733490649, 1.4324451728810224, 0.002039989312795594, -0.05242307406751564, -1.4916482971486642, 0.3503493253178818, -1.4304583513209488, 0.5636399400377983, 0.13284630812697834, 0.6400652771209987, -0.024541300619146538, -0.038054654908441364, 1.6540693588717, 1.0077215829577184], [-1.7790052198085884, -0.014624478743989654, 0.6762497993725941, 0.21076381406530026, -1.8618023512041566, 0.2773460749128965, 0.11957236699383392, 0.09230308711426082, 1.0209239802272385, -0.5123607632950907, -0.04100745586155637, -0.33997777557902475, 0.57406693541952, 2.6628271918309028, -1.3683019563925773, -0.5927440624976305, -0.4985029881803607, -1.4491328383391289, 1.0479255394356404, -0.7097112074705344, 1.1101865526683756, 1.7212311976518058, 1.6427267909939458, 0.42604107028869614, 1.8922403900043392, 2.2255099612336893, -0.8836138953907986, 1.0286079931145995, 0.5872594680978843, -0.45186439475168905, 0.4742240303458316, -0.09572608603916524, 0.36767347630475355, -0.2759071848328467, 0.7257751086155199, 1.3525883572448814, -1.7155404770963167, 0.6894265106536129, -0.7172101122622849, -0.6258061948132327, -0.04862094515232531, -0.2835219064516102, 0.020754117929975585, -0.6006192810888252, -1.1833638011279208, 0.9812209106546904, 1.0562356622512707, -1.3510974100758113, -1.1927082123484898, 0.9059064556897761, -0.11033751258126516, -0.9668870356169144, 1.5697333822572919, 1.094534222872464, 0.962437095583402, 0.906700812097106, 1.7602727182818783, 1.0176284959132584, 1.6418534367248823, 0.9787815967593494, 0.45187539696617784, 0.7517268573418665, 0.4596208416025718, 1.2175215926968426], [0.41889930681094917, -1.0340715190019967, 1.6461506538132258, -1.194368281479641, -0.24434612500459743, 0.8905795299551568, -0.5866455215458722, 0.030531942351904175, 1.5141044751068355, 0.9293797179956591, 0.5915653121373462, 0.1407303175871868, -1.5214526807706006, 1.021842667698157, -1.5822767860023326, 0.5095145953119626, -0.3568770116156504, -2.2175685002493553, -0.5916821178781952, -1.2565064162970065, 0.670571381059279, 0.09924302883049717, 1.5947769886550391, -0.9412733772954048, -0.7385535329801526, 0.19762742151241033, 1.3557367974480028, 0.5383065810535187, 0.03551647259451544, -0.867003744799122, 2.1780893391993934, -0.15880038306288738, -1.2309562517581967, 0.2753602396027737, -0.7688810631336986, -0.9792940772146265, 1.1373522391416644, 0.7008739180657806, 0.5920515593160753, 1.2598793765169944, 0.1322846980257473, -1.2663524708219718, 0.21908701821238732, -0.011800144206460887, -0.9253439813451969, -1.2524149439011607, 1.4930226357142633, 0.7854764528549868, -0.9027164538332099, -0.9333172012444224, 0.5045797654704761, -0.036368833910613865, 0.856155556836564, -0.051342912704208085, -0.3295430326335301, 0.4548291714968719, -0.1594703264438506, -0.674331185486303, 0.5601231610303146, 0.9889128942913799, -0.446148032803478, -0.42788233263563014, -0.6510789642920245, -0.9385192820557556], [0.38117292894343124, 0.9364639460195264, -1.5928398829912223, -2.113494174527808, -1.7825335343918676, 1.4449448654579424, 0.365744491258538, 0.8446652659045594, -0.590898304466056, 0.983494902139982, 0.5759844406328872, -0.42120753173040376, -2.1752608562496487, 0.8790187243834333, -0.6224258458551829, 0.2749149959814443, 0.19290973969550157, 0.8322105519422051, 0.6142851481201329, 0.8851025149493374, 0.48843220829071704, -0.47756825940893144, 0.3764827219613796, 0.2545873339241572, -0.2690378414815943, 0.1273419395036818, 0.6865082699832734, -0.3027387373729808, 1.0800426342444311, 1.532265249006984, 0.6914348836708955, 0.4049321078802233, -0.6241068764943583, -0.427783729987251, -0.5969293929158517, 1.2246640552123897, -0.19278078851350763, -0.44838400048471444, -1.005297599943295, 0.20618061071078814, 1.4362901237563246, 0.9729826951781718, 1.3742180951336622, -1.2577357193446648, 0.44267472266842484, -1.1052352429148984, 0.751514201601818, 1.0575306323740594, -0.5007833154550767, 0.45993715118448286, 0.6560105088937781, 0.005411040577460287, -0.737470633061621, 1.1188902572116768, -1.0883669920250287, 1.1835867409108132, 0.3747819439333432, -1.0219953285263044, -0.20161303094544727, 0.5008709554970783, -0.08454378176961004, 0.06581590910791382, 0.010182301205252762, 1.7798243766533453], [0.09721144394744807, 0.2745242951730754, 0.6114749324736095, 0.3445533288016556, 2.2414953786592435, -2.084639132454187, 0.29278037857569916, -0.32718066974612353, 1.2374525408589556, 1.0699691016892268, 1.6795083582836285, 2.6116720650317333, -0.3840869293209991, 0.40445166836461177, -1.24677147070361, -1.2863441677084697, 0.1680772018666437, -1.362046957534967, 0.5090308956583095, 0.36586657398015354, -1.0101818427081926, 1.3308530886738394, -0.7610443564264088, 1.2702174634982397, -1.8420765927960854, 0.4955700482049656, 0.6277206416217667, -0.28759791546421387, -1.0585617060817396, -2.20224147187092, -0.5300397580425709, 0.6639947087477739, 0.6903518195188416, -0.16525156924899576, -1.4238739032547831, 1.7508021778248384, 0.6101809585146623, 0.021983403711540825, 0.05052246940084612, 1.068809358298806, -0.5306282317454503, -1.577757912047736, -1.220352388121859, 2.1045309968729025, -0.37333697669245425, -1.256736509931358, 0.67702986849365, -0.06329423876550211, -0.7854454500269243, -0.6596664669852498, -0.9920219309311785, -1.3480593072410196, -0.5218516926866221, 2.4473464215266993, 0.12593047317490033, -0.7734723290170594, -1.6255296971778601, -0.8496028332724122, 0.9854634218314932, 0.35213740144334865, 1.9025139205319999, -0.382032524538817, -0.48685100067278825, 0.027027199178539327], [0.36588164236314136, -0.16602861813409478, 0.5404022758199989, -0.22359822709110108, 0.2617010365210662, -0.8788256991222697, 0.22338152449598941, 0.2759418990779069, 0.06464925530843595, 0.25129617537815985, -0.23892745611740313, -1.2588940133861541, -2.5055621691037677, -0.33917079652490056, 0.48349270599591304, -0.3323784630878313, 0.7942499554780703, 0.06333222100800502, 0.5545025154210302, -0.7619025738249727, -1.0742220300731438, -1.2499063145267277, 0.9028676909648012, -0.40831520780284386, -0.33375727444634623, -1.0860944718884409, 1.079404273274736, -0.8339293547395862, -0.9066933774116075, 0.47914430143706177, 0.42444351582043344, 0.9966835305932787, -0.4585623717703027, 0.08476026448906594, -0.7517887703057032, -1.0602489433219269, 0.6105405603036862, 0.40627103433728035, 0.06945486058985327, 1.9247295220379417, 1.4539247011274994, 2.0862381838376853, -0.33901502980395704, -0.9472427030108499, -0.10187157236010007, -0.5649699251726251, -0.2805354315283516, -0.33665621874795576, -1.094112401850779, -0.5350047996610439, 0.05140356784039861, -0.46015395801657283, -3.019478289127564, -0.8034789084221933, 1.0155312441539965, -0.8423798812727651, 0.6029855042946175, -0.021126861661468852, 1.0596196518981214, 0.5935863876326577, 0.8621616676795987, 0.3015015601554714, -0.48152007909040123, 0.12213336537981243], [0.4667625263465448, 0.29207422144612344, 1.1905032745203572, -1.1644960047852317, -1.9118384764938943, 0.5767659350881928, 0.3129448076130652, -1.3664558272112886, -0.32094617970991796, -0.03218742948789234, 0.9242571884155808, -0.10530188835403416, -0.1471363794092325, 0.7639739519567249, -1.7750661246399277, 0.5439800733216288, 0.16920718894614695, -0.9260164082022244, -0.023876597295284383, 1.285165082287723, 0.36501060120400836, 1.957147485251539, -1.5246206669302385, -0.5226247989378464, -0.8027494032332249, -0.5154219727994211, -0.5622819737026037, -0.6457140460803893, 0.5944669002646673, -1.1489963195247355, -0.8191788097193523, 0.1834038489640686, 1.9331494051476352, 0.06339719161509598, -0.13231336136075628, -0.613147286313191, -1.5652686351165574, -0.97217252028459, -0.17271456198533477, 0.3318117528760616, 0.7176342868325969, 0.9238046790574793, 0.7087684072732814, 0.6326611553098112, -1.661077645229176, 0.031528885502400274, 1.6090347711218371, 0.47177761480283514, 2.0468956858442504, 1.2229795703374287, 0.6293960998434666, -0.9902737266289515, 0.7855210421731049, 0.744750904240967, 0.6048503597711237, 0.9479135293583886, 0.02919824227611224, -0.1532949994121978, -0.808253278056905, 0.7148458150529693, 0.03837002381133596, 1.0886277258418602, -1.4201810549223448, 0.19773612678223465], [-0.10630799215816454, 0.01777062822279798, 0.35644111212353585, -0.14474255579499676, -1.2525300719713104, 0.17099173202803972, 2.7763254588000312, -1.2200783739047856, -0.34153074332485567, 0.45476536272575707, 0.23842571206455815, -0.11660753330508225, -0.48053705721973694, -0.1414497929074891, 0.7461143573591915, -0.2324492035301729, 0.8550308458376977, -0.08217955576858212, 1.227917194888763, -1.014912045053364, 0.5826351796035163, -0.5605490108921727, 1.5188709127713413, 0.47973453921572196, -0.4848700259763014, 0.18552322332850749, -0.6475897026924888, 1.7643068907799073, -0.7623451772061194, 0.1583505914466949, 0.9389037772943867, 0.6290985070965912, -0.32383251498638105, 0.9517123999002982, 0.2018708184922912, -1.1791149052826604, -1.1102859959976457, 1.1454614336543856, -1.6270171962609803, -1.016235867126816, 1.6557042382271825, 0.4480092560521237, 0.6324830961433667, -0.3293872870576077, 1.7609482909501006, -0.2731028334753048, 0.926485195456782, -1.078985711212504, -0.580865395477609, -2.729044357089719, 1.1020000973238673, -0.484610482060817, 1.143988351254438, 0.5991729916158207, 1.1171287573337647, 1.6302750092650247, 1.757352397931975, 0.19216480176474013, 0.6628117661526611, -2.0629441646040836, 0.4435442534411382, -0.9662136543845258, 0.18686589206270993, 0.43966891204060843], [-0.1846462299060448, 1.3034169184403073, 1.0139442850591336, 1.1956678167282278, 0.9050264189533831, 0.5604533970480537, -0.8770332527050415, 1.538379851802693, 1.7335413254921535, 0.33781442919692056, -0.24077939121999706, -1.3836466853338705, 0.2762461940304474, 0.16775394441283006, 0.5209334119987634, 1.6719726008266134, -1.1365518925887945, -0.6796747635067687, 0.8957657547250679, 0.9382279927349255, 0.7930605524518372, -0.042382357726280115, -0.05705869182666073, 0.031216052991360762, -1.3208173667695051, -0.21899848103126462, -0.42039445805125514, 0.3100086777490648, 2.180496319638774, 0.6696772854660646, 1.2990494852142003, 0.7779730855208029, -0.5369847731644571, -0.18085904537193154, 0.6254161731374436, -1.4107230271446614, -1.7136969019583213, -0.20792927144826429, -0.4432442621231197, 0.21044802246357056, 1.3371703539009159, 0.8499909381531157, 0.6554100699036137, 0.5179461774231867, 0.22641983526200565, -0.5240694201011481, 2.7347220680651043, -0.34408047191205804, 0.5732667698824925, 0.1918011993362733, 0.5338752201638095, 0.14259804246315522, -0.8295259483463495, 0.24350121915887402, -1.214230449042842, 2.140719635848265, 1.3568188596698891, 0.5146796450521871, 0.3248884222147333, 0.7496886609970755, -0.5426344721669722, -0.9077853251360676, -1.8344258214845997, -2.189700557749177], [0.8300700962365736, 2.114972180111325, -0.36828110384225976, 1.9408210391643, -0.8419015179841862, 1.689279695660335, -0.35241187715519434, -0.12169176759295995, -0.15487598945340703, 2.4725130171322265, 0.3679205193485643, -0.40139670771987895, -1.2854017963577087, 1.624561836467517, -0.06673601881932618, 0.32899969445642957, -0.28519943718191715, 1.0150680787154869, -0.600344327643504, -0.22476104884445314, -1.5619454906072574, 0.5183963822937636, 0.17884920877518767, -0.45540169600100905, 0.29544075938586684, 0.5438110446247724, 0.24107892253465105, -1.4415215016608294, 0.2502178683621191, 0.5222957480920298, -0.6034812400286401, -1.590448585076191, -0.33384317523740825, -0.12214358859249375, -1.1820949222971797, 0.5486006434913371, 0.20734902788956122, -0.40800572079704767, -0.9847091574385742, -0.05325385960763708, -0.542557289278743, 0.09498250661407558, 1.8399714829058864, 0.29505979145211914, -2.042499754030473, 0.17774789041522038, -0.9811605302559214, 0.5794306891279211, 1.0475864823232, 0.35384034605852205, 1.7583556507338916, 1.3239304992040541, 1.7223972327686636, -1.6114291773243108, 0.7811876559567983, -1.943568898471209, 1.7975728050475188, -0.2874425533098609, -0.01667833844315343, -1.6125403234856799, 0.5182024680825486, 0.8290558829961522, 0.7413309178765323, -1.5378931704299477], [-0.362006277249694, -1.103255160475914, -0.43432765000649476, -1.0682041983192245, -1.8433302877699238, -0.27274824801804165, 0.3488053490863389, -0.8600943494291856, -0.34606254157301014, 0.1419471025452551, 0.09826733603966904, 0.13537551720562466, -0.21823473396034013, 0.3807530101111061, 0.2387255314389622, 0.13454766011679728, 1.6397105994939052, -0.614485139414611, -1.3590305596230507, -0.5872785126160613, -1.9435556958049454, -0.21788449197404788, -0.9752585589861398, 0.1843759532156277, 0.11425073663180842, 0.8443467794344975, -0.17082205638355702, -0.30948092562896473, 0.4542808191914004, 0.3060751549116735, 0.6761459549434247, 0.8564699279454369, -0.20909371912166236, 0.665785498633312, 0.3217034422101787, 0.4943824186678361, -0.5947936852906712, -1.1187462934276506, -1.0976119097046964, -0.27444347957018306, -1.4599709537448777, -0.07670617897725707, 0.5397480768896284, 0.39088606986927693, -0.8810036123482284, -0.5130851371053993, -1.2452219420652897, -1.3947611590235895, 1.5806695869774903, -0.0006720379849098784, -0.08369416433756069, 1.3675180294726665, -1.5820542590986817, -0.18275779202562703, 2.9492855374096734, 0.9639575319355081, 0.1574353015012195, -0.7690873631719648, -1.1812334748461104, 0.3535715383323811, 0.956346932713027, -1.5133217667667775, 0.7881870169027756, 1.04824906045827], [1.5746553894223603, 1.0170253989547804, 1.9496533307886716, 0.37024531375609704, 1.0010282763901057, -0.14302139975791656, -0.044862191434083064, 1.0771401217547978, -1.3833498058301037, 0.0025279239646442556, 0.5763136382397881, 1.433803197924469, 0.8030227398150132, -0.10702764324001715, 0.2507251848199401, -0.7448139907375828, 1.4801376315014358, -0.521249070582926, 1.9355886489317684, 0.12349185339738267, -0.1969991164078336, -0.6581133412107176, 1.3030715383083207, -0.75956032947863, 0.9259122791687571, -0.9894692799652777, -0.23623684340347365, -0.33462033041774003, 1.2239577433935098, -1.5668432870856983, -1.2284893624389799, 0.9163491791065601, 1.2717942682817653, 1.032383087760309, 2.080616713517142, -0.6152062076493705, -2.453566205304855, -0.7083325520375795, -0.4411144809679514, 0.011948329498576622, -0.10013781078316666, -1.513449097786955, -1.201645144307701, 1.1522960518447183, 1.9563702519337351, 0.25062104075411146, -1.2875486268574527, 0.5440546781879965, -0.9763357630885623, 0.8571913894615482, 1.292514294557284, 1.4746662077841246, -0.2852483446709177, -1.1948064341746663, -1.9011197332287124, 1.6671130760643076, 0.20898972573566402, -0.03779952942285314, -1.3929278878016753, 0.3368981950450936, 0.14776654174954432, -0.33299341718695374, 1.7727142034705503, 0.15009042371487316], [1.1225588706459595, 0.8413201943874591, -1.8428646722800086, -2.0092545625599945, -0.707626055897175, 0.6018839402809352, 1.8151234313297455, -1.000028927927789, 0.24491740363809167, -0.35688989769157836, -0.9680396565200954, 0.8260713388575298, 0.33884697913903755, 1.582552494087487, 0.009866873473095257, 0.9534203375812438, -0.5552469227740527, 0.522770323556712, -1.0407069691024984, 0.00048299060133975326, 1.0035073370534753, -1.2488077336524008, 0.07328162495380929, -1.3741109817047519, -0.5990784485961277, 0.6727425360323672, 0.5603262261902678, 0.004763581710500002, 0.18166179174550157, 1.4210483234928641, 0.744332710029289, 0.6856419731430565, -0.6940719880280536, -0.47472800853181424, 1.2582382206409954, 0.4019588706831498, 0.36203891387029025, 1.7263963929112118, -0.902404423902606, -0.41323336649747644, -1.4456540943517122, -0.5244280259438602, -1.3446697374620908, -2.480287465554709, -0.16309013666903965, -0.5147867370947123, -0.5304094280300458, -1.1586206703649367, 2.7226579854933752, -0.2879126895937779, 2.7638556426243883, 0.10416628741063334, 0.8928517443370074, 0.7447134032980525, 0.5876388752337978, 0.14460914761244043, -0.41229910610961773, -2.3136583121609977, 0.33249526217871134, 0.16931042803721305, -0.7937807781429668, 0.6627323963423138, -0.3608878678231499, 0.020711239627139746], [-0.7941234753550339, 0.8802363021932996, 0.6419632576038624, -1.4213378394308855, 0.597857713334496, -1.308906920021401, 0.34472059018565304, -0.7604693781582598, -0.1406772722856227, -0.600455406863254, 0.6077192689730406, 0.5614393396589403, 0.5758643380026099, 2.3036455913612075, -1.3521850848224095, 0.40210659978009916, 0.8990413385545436, -0.41057612192261933, -0.9382963538204352, 1.4500512216749324, -0.846281540145089, 2.403227849746885, 0.9245445397828729, 1.1326544341391687, -0.5931063550125552, 1.5138219350025444, 0.4411823253796442, 1.7295916255415493, -0.13072742282138733, 0.0705517775160157, -0.8587971088986452, -0.08707681322173097, 1.0218105803276376, 1.7899511444030378, -0.4417120965359326, -0.08314082723386619, 0.8204867606039337, -0.5370960901432748, 0.2929855844016277, -0.053153311160889775, -0.954528203228581, -1.2962325529079044, 0.28922996107465865, 0.39412136243439416, 0.9574408494931212, -0.8347735000559878, -0.7222573654548228, -0.5197899006366578, 0.660610340697349, -0.3525074506460879, -0.512561938428032, 1.7834974202272331, -0.032143872684150275, 0.9964032938239826, 0.2563608162224948, 1.6755845193589909, -1.040844033605032, -0.9075141058327602, 1.2415823204823428, 0.2699774455987329, 0.7305726548737476, 0.32892274884153416, 0.387036936995438, 1.2506267841469898], [0.2595430091883984, 0.8358459997033395, -2.554814050397111, -0.8754962876583221, -1.2595523882418678, 0.568989816200262, 0.36295138311198694, -0.2449316579347589, -0.890627187960851, 0.22746085677059893, -1.358874202170808, 1.1208866152739076, -0.8122786693590682, -1.3654998780993912, -0.2010601851997522, -0.19413827519552213, 0.7614609058505148, 0.5222339347763687, 0.4366211902141396, -0.4638213629129547, -0.4303966068454211, -0.43945835995993865, 0.8445375760837507, -0.34661930103527633, -1.8550623188238975, 1.3376655897119476, -0.7167619828597596, 0.2939662108682466, 1.5823697336020464, 1.2777781023739858, -0.3190156850701858, -0.21472822782873424, 1.5668464460560432, 1.6474738430928832, 0.40983883442266467, -0.0015227145401484246, 0.4034986202367133, -0.5206128104740666, -1.1247227521080672, -0.4160634652067836, 0.4987641057674319, 0.07212492808792567, -1.9213963222948693, 1.3682078241753455, 1.4363634524155202, 1.1318256004478195, 0.6577079271066337, 0.22260596043089323, 0.3318763604869935, 1.3096961973406098, 0.04613231639449186, -0.873506752741301, -0.0557449266511973, -1.4931085495929537, 0.00857057873711778, -0.5994988634208177, -0.0549125179026859, 2.4107573315584117, 0.3100602971798463, 0.4942312319586998, -1.4030081704512587, -0.39683153307267155, 0.9289217690714815, 0.8966357429103212], [0.32275553462582884, 2.017397578340806, -1.1809766307020855, 0.6233966684726192, -1.0613220038807043, 0.8386992187684233, -2.674814438512866, -0.9145892322203668, 0.615393492901773, 0.11702435033107478, 1.0166544966244935, -0.3866112904938636, 0.3128491785442516, 1.5463151302209646, 0.2665188298474402, -1.773902379796769, -0.31496343501988133, -0.4955365061567787, -0.7344758558142588, 0.10719287249680484, -0.919793628868033, 1.5701749836726397, 0.10011845364190239, 0.7045091995263103, 0.43371435429525856, -0.6301649907495976, 0.20479266970356375, -1.6923388444453182, 0.3847395431932847, 0.21755165324757852, 1.8486585402635474, 1.2451768851066742, -0.8842697497439428, -0.7485795086261474, 1.5250972072860398, -1.050549240910125, -0.14049754781225188, 0.2063607191440174, 1.7050752199158172, -1.065889385275902, -0.8310556101158835, -0.16704848061303224, -0.22516071659483092, -1.2664169895910844, 0.1823342685288408, 0.4757179729515804, -0.00624749909608451, -0.4286006895038369, 0.09281635295594677, -0.1530993652222406, 1.0816642101965943, -0.6296621402997927, -0.3876766335113583, 1.5482059998936735, 0.9319163634092831, -0.3668328388540765, -1.5327674513107599, -0.6325507885752846, -0.8605729723885422, 0.6926734140423703, -1.3995135467888482, -0.03900084187523604, 0.6869376770616449, 0.024610924354389847], [0.619951602914075, -0.018432613234157926, -0.41866790047304714, -0.506437138633781, 0.11816520887303691, 0.2801935087625301, 0.17609060654774036, 0.8532425839939517, -0.20772226152839787, -0.4036369774289267, -0.6376266407920901, 0.9815725775432228, -1.2094225514937764, 2.453333085059053, 1.5853204184544887, -0.20640389337347098, 0.8014995302321771, -0.8992991285777349, -0.18178378221098612, 0.4562579201281703, -2.298244977524934, -0.7571996627483097, -0.5123494614427917, -1.5291176127709625, 1.578710018765323, -0.29179516831965935, -2.891511480266465, 1.5813434316140553, 1.6790709139375262, 1.8429948292589102, -0.2410490433934643, -0.4719770498589021, -0.04472071656060325, 1.2485175519153422, 0.21077639827867464, -0.7236007880901926, 0.11570072469252614, 1.568495238469606, 1.995204914958134, -2.0473869177809916, 1.0422508937478188, -0.04894159950049813, -0.9883241555598781, 0.06264861100813558, 1.1726310798401003, -2.145906490992007, -0.8175495463745879, 0.3380181076719186, -0.010027245263731388, -0.7650440765531352, 0.11139191480130796, -1.0831436373754542, -0.7752892613239524, 0.13709833236789584, 0.3982485625926226, 0.4715904875160344, 0.2672589441714726, -0.08696044863427461, -0.23623063578079662, -0.1923738760159783, 0.6355857670152736, 1.3387524515407794, 1.733914404378866, -0.2823033089990523], [-0.06746988975377556, 0.12769130229012166, 0.13357971925722345, -1.0170469446175625, 0.703370129532403, 2.018173105408419, -2.1184436022043336, 0.9340750865112839, -1.2065215329274852, 1.0973968223176775, 0.45649848502097917, 1.6812252448367369, 0.7947226037501349, -0.0799031455189001, -1.341192092810752, 0.1379875725041552, 0.7800431541551157, 0.48669587923112334, -0.6647352056770366, -1.204047524426513, 0.17254732987558635, 0.8059834326652149, 1.279221063744146, -0.46393585695803224, -0.5364912567801339, 1.02388871112381, -0.17773979821252014, 0.7349322928680153, 0.21762562625293622, -1.3454961307000246, -0.23246046381217153, 1.2701984850473267, 1.3061053422646105, -1.3303550582969932, -0.27240144950646744, 0.3994450386798551, 0.7221275341358864, 0.8509706508402413, -0.1649762963450529, -2.828130839035651, -0.8525632915864112, 0.9481930155134397, -0.8229046821037809, -0.1926273103751093, -0.5828427350759314, -1.116670914632246, -1.1470305042127322, 1.0123301291535707, -0.6033969466944596, 0.1690265657500107, 0.9967769868870562, 0.3075686296840664, 1.2471602380126536, -0.32451917971977035, -0.5324216153785134, -0.8706231866538897, -1.5584676326209697, -1.72518170846262, 0.6192917812367374, 1.1142304312209723, -2.1726880350973126, -0.014061719858579569, -0.9810467702986106, 0.7744539177078257], [-1.5213902937719854, 0.5835337711580395, 0.43229829833763994, -0.5832435290683634, -0.5526203252585131, 0.285659043697623, 0.47105343515245557, 0.05389801515569181, 2.4287544917989123, -0.5378665459552227, 0.4434335991832058, -0.8411355742162048, 0.6071172007963179, -1.118340365126854, 0.911583508699734, 0.4957066058729871, 0.21620530529444812, 0.6694230802233578, -0.9262024412366738, 0.13713873110152852, 0.8222401155337418, 0.39523394757451724, -0.29933287109747625, 0.08802660199277589, -0.2390432735446173, 0.8195566836206314, 0.32615014517430196, 1.4846690084683545, 0.6467529287837123, -0.3641414700016927, -0.7173229583954034, -0.21098957751191205, 0.668591250238042, 2.6760202376865165, 0.9805012447562048, -0.7630629800481941, 0.7172732938007931, 0.25515027597795337, -0.7604503951132184, -1.9636521318942264, -1.0133070573583023, 0.6665456916000502, 0.10344156347143192, 2.0222291803829266, -1.6648000541693977, 0.23212711401667116, 1.9243468647447306, 0.8079931240320541, 0.03784392223651478, -0.8781434407720886, -0.23076981760867543, 0.09532380010913132, -0.32644361861668264, 1.5230948548283574, -2.0400054253288675, -0.36663718340930185, -0.9601797244749867, -0.722875853215207, -1.1826934605270367, -0.39546458167579474, -0.3638443703524025, -0.6092348200836429, -0.131311193084348, 0.8283367901896841], [0.22468694646702378, 1.2404394323664851, -2.223349107587579, 0.3793429402542866, 0.054161384621966145, -0.16728168369342303, -0.9032537457005727, -0.9304157040470137, 1.8258276580150956, 1.8415243301212108, -1.1615542498827922, 0.5442609117868926, -0.44885245631262605, -2.7089623509255185, -0.9052194697450736, 0.374271430104076, -0.26786058872576685, 0.19515911022954738, -0.9439915077147799, -1.0306334854354435, 0.7104985101364456, -1.5347150370125728, 0.47920744733531906, -2.1184421474367023, -1.1875457756687378, -1.4435398156990535, -1.6556617787331176, -0.13897571459459568, 0.12927613208903513, -0.15283744229134358, -0.6379826172359941, 1.168447470328504, -0.35437033568282295, -0.00853987247179895, -2.0846611248751277, 2.724110499215777, 1.1100008687629395, -0.8706358725550741, -0.0440429878313537, -0.08674639175942468, 0.7138518649577155, 0.18900662205753851, 1.4694775818174413, -0.682173504830947, -0.08280882147580615, -1.5839917555507281, -0.715022270743163, 1.8625366481181644, -0.482018003658117, -1.7253622415937468, 2.6529458804159876, 0.5808831105927824, -1.3089659187235936, -1.3910032114472841, -1.7898343210000371, -2.200183083335388, 0.9652522152071658, -0.7655097808025378, -1.1895748665241923, -1.5557696896724853, -0.47834564938154406, -0.33978304961742956, -0.38074612241068456, 0.6596950619222537], [0.23479550988515677, -0.5709036842181517, 0.2725427308241023, -0.26836813835056045, 0.13687042883690692, -0.06638489106889214, 0.6190531295702778, -0.23438252214542632, 0.07043187851424784, 0.2494942809185112, -0.8484058423525904, 1.184210292744333, 0.04104710872568246, 0.13548793223522979, -1.6952806929032889, 0.17812227233907466, -0.0452785625108321, 2.0519984093494554, -0.5927021697786364, -0.16521378061409495, -0.20034307182725242, -0.7168753887911383, 0.016677117941437506, -0.47336487400886057, 1.118495904915875, 0.48607320858205894, -1.027701575056674, -1.7626461453123483, 0.1043675630233738, -0.8348484075227088, 1.0463334271019895, -0.8959576800770115, -1.3589161331214041, 1.3304175909504288, 0.9293131092505473, -0.04460441452114735, 0.9508983777841041, -0.6324254613406854, -1.0611504135468595, 0.3716595214338401, 0.0959623504816614, 1.3977308654404967, -2.062063795738857, 0.8249172768005779, 0.1179448395046468, 0.4781326725715535, -0.5165213775997485, -0.5133155400958628, 0.9491871040591117, 0.7187735861356946, 1.8614263032281273, 0.025844223700076645, 1.3160200842685132, -0.6457011473164738, 1.415124095979885, 0.3970744553296857, -0.3611845021843006, -0.5299681009539092, 0.9566637994975756, -1.4790002043608121, -1.3223021520659661, -2.6477887298406766, -0.5344270753617962, -0.011301867936843329], [-0.7563988536277235, -0.7569098478750196, 1.159745068983059, 0.7064061842456313, -0.6740797927549825, 0.1060191820823213, 0.74070365495494, -0.5585443102634757, -1.2039043726734797, -1.1586952897835594, -1.0953093674674277, -0.41196568854744897, 0.26600487863011624, -0.8971418788703762, -2.0225411872111345, -0.3570371576956449, -2.193148276506922, -0.48781533994924786, 0.727043780090882, 2.289768837338539, 0.6849129271053535, 0.02579473198903238, -2.235333221736388, -0.023779778236546614, -0.2429578662563032, -0.7796146033875059, 1.3291709929064641, -0.9789337717895934, -1.8452131337364401, 0.652498417392727, 0.9713885740592777, 1.4513172664324696, 1.9120131850731876, 0.6150656941029948, -0.466844797182049, -1.7859331125727114, -1.3040788911790682, 1.6317935693791248, 0.23692067333609343, -0.6556751111839084, -0.24275198853719682, -0.8883705780574261, -0.5740368981208421, 0.013065526046470372, 0.37728424085438655, -1.7204762305143522, -0.7190996352330463, 0.6314445322823272, 0.5928833846086298, 0.9562377764353518, 0.14160987398660052, 0.10264288919982106, -0.377154304171655, 0.5754897741159419, 0.19854924559010725, 1.1565484993871404, -0.544590937790256, -1.9279945408264916, 0.8274128286361956, 0.16397417435465422, 0.3158578992291316, 0.27490700974104015, -0.22900212736725978, -1.061829531326256], [0.40996865462657905, -0.6493336048160309, 0.7359422260973242, 0.34947412980616427, -1.7820673133478881, 1.3422476930833915, -0.8368802848084969, 0.4844840213841734, 2.021143213769883, -1.7886373970999514, -0.6100830677983373, -0.21359128937633137, 1.3047792526370554, 0.8637146477472304, 0.31611636397073506, -0.6855865825345617, 0.6630525931066529, -1.296776393403824, 1.2772191443082848, -0.25759205669569346, 0.6140905894514174, 1.325467379189292, 2.1299625440970833, 0.2561313626182929, 1.0255298390815415, -0.4891324449166501, 0.01974972012542199, -0.658216554026494, 0.5460547774001346, 1.178632207660247, 0.6440789949326535, 0.4608463291053464, 0.272215794616846, -0.5779019107698582, -1.5545166846266656, -0.622894695069416, 0.37898274503459134, -0.021842146208187162, 0.8842201885082102, -1.1330611818704395, -2.995659233063915, 0.3831997976998351, -1.4203007583099139, 0.08024791004508894, -0.4804325339895928, -1.670011788423922, 1.54015320346067, 0.7026359395168148, -0.8216451961328126, -0.19949613625229912, 1.818413133350673, 0.6265407863780736, 0.862952212302623, 0.2517312752937742, 0.9583274046746033, 2.477203941569252, -2.523263820164912, -1.0278475015154669, -0.9798282743626724, 0.8851569078801869, 1.3446426251461796, -0.14907056457726997, -0.751638492324697, -0.7941273269595929], [-0.32487923813193004, -0.8179547597426929, -0.6203946109376212, 0.2756099526050954, -0.6036384776299004, 1.1328562884910964, -0.6946370780006456, 0.7919982792628879, 1.7455242194304705, 1.2046817049580716, -2.1364710128675486, -2.0741253704067573, -0.34752899289413064, -1.0620080413629769, -0.09626509905956808, -0.5402239128062823, 0.8047997915349784, -0.582081898942726, 1.355681829582407, 0.33479222224752186, -1.3237556203344953, 0.05739620711732568, 1.1725550563368747, -1.202268051991203, 1.213198685931469, 1.2387851442840487, 0.8385173120430706, 0.6262673312201238, -2.807021342875716, -0.9698023062124117, 1.0408148657380014, 1.6366638716361075, 0.8694104625859098, 0.27995293275756494, 0.7215168337402121, 0.4847054917762712, -0.028968819246387372, 0.29199124075082106, -0.15594119624565747, 0.4384723609886291, -0.6649283544831086, 0.6536491899457063, 0.6427463354807537, -0.23061690629814352, 0.8171204646905834, -0.305156288075076, -1.976294895730925, 0.09135888719420779, -0.8813147145221318, -0.4866440867259624, -0.5355480466541341, 0.07083612541005647, 0.6202978159880296, -0.33602630838451275, 0.26652334916816506, -0.01599908393883183, 0.6102747482694508, 0.3900756831914427, -0.5479595862037875, -1.7852286887467474, -0.9286541093425598, 0.3544517990843895, 0.2658154213566088, -0.5614622188822107], [-0.32725492547191115, -0.8031505725783407, -0.006198233338073983, 0.20317556111914978, -0.8306577383914422, 1.0918468227292757, 0.2772925172108457, 1.2030187500810614, -0.05097909198986569, -0.6241849045203524, 0.49735882101322426, -0.6984978222948512, -0.14904244468735744, -0.6449049680274449, -1.4176191308588217, -0.6137041991174018, 0.3161693434777883, -0.17888572021406024, -1.0767850088217787, -1.1385197167177394, -0.13057675888246012, -0.3447938471613036, -0.6607359578802224, -0.049491009068181366, -0.37102435419105273, -0.13901760781044623, 0.29921569652751856, -0.3831087417318337, 1.070220492376271, -0.25735009443270523, -0.22877881799864538, -0.10011796387947308, -0.447602708006154, -0.5811961700590117, -1.0320348099520724, 0.6388768159460956, -0.08985101768707786, 1.0251448309701119, -0.019482394208877433, -0.7048056277502418, -0.19776492953636807, 0.6609550877737689, -0.16572132238818135, -0.5269147362081124, 0.8005240452151636, 1.9901147977037512, 1.5749611786648763, -1.2580102352752884, -0.6023871756911366, -2.343451103090524, 1.1381667721605566, -1.4231365899858077, 0.9142746604239324, 0.22725393740230113, -0.4671491612940152, -0.9284070921758049, 0.004831809736324765, -0.025616676700960912, -2.657425895585784, 1.7930252843222956, 0.8763798704993517, -0.29509828981324193, -0.6402731797731381, 0.18406998905191826], [-1.395905535284401, -0.08307465728395254, 0.2217753462714224, -1.4841784339724746, 0.834568090486547, 0.7029284905459972, 1.2773660132195808, 2.376437138715728, 0.009164431450487722, 0.5754414984606511, -1.5121417472306429, 0.8745738469370288, 3.209153971751537, 0.5515188411550755, -0.0008089925731088823, -1.092256759834908, 0.7514561773830121, -1.4484751316035767, 1.174713707137013, 0.41191998359893073, -1.5846094718497032, 0.2659151424992497, -1.9899921801787537, -1.0244698945624542, -0.7787312876838084, -2.4854216723645184, -1.0776544373364145, -1.420034018325001, 1.5361952383822592, 2.0905820190061566, -1.3773057955142256, 1.0732452145615914, 0.13530051854730252, -0.07627348942622383, -0.26332748481914514, -1.1610723726428056, 0.327619500886888, 0.12936993315251655, -1.0031973795577793, 0.5830776453738716, -0.2517110543744426, 0.4716215616955218, 2.6606277672419796, 1.1377096548596732, 0.317280727479626, -0.0944544297770226, 1.0949187731553738, 0.49889004555144395, 0.1958029548889917, 1.5673165762414485, 0.6581687012466169, -1.2026720729140015, 1.509925098728897, 1.6802391874113263, 1.1856531865355087, 0.1388636281468362, 1.389119548125638, -0.47951423120958114, 0.4701754284225408, -0.4947467625308443, 0.3520113899978598, 0.061606669970642645, -0.7800138708023232, -1.0507763770862628], [-1.744835382031072, -0.4882288728853951, 2.8644098213527793, 1.289508891208988, -1.2851795042388277, -0.7840641593872114, 0.25534181555395397, 0.05408430234131625, 0.6363177555180423, 1.6506105751542899, -1.8827391233856279, 1.3157324260086198, -0.33750264324332296, -0.39040121423881363, 1.1464879638124925, 0.13277769142147758, -1.8981997649674243, 1.01715782762861, -2.4621493596535826, -1.0445261881952568, 0.8227359851763542, 0.9738577532852073, 1.1604110866390398, -0.36022735174714365, -0.6176547883496321, 0.2295764862428117, 1.501734771150253, 0.48126589816264936, 0.31785297189550127, 0.04039473148272651, -1.6640717602594555, 1.332101250904695, -0.8628948040503263, -0.03536832084080098, -1.7407288999988542, 0.9258714554717684, -0.9972740478126174, 0.20114044005615042, 0.6347269068525845, -1.7838370167658224, 1.589866170365828, 0.6198144899963995, -0.6289621412789438, -0.6879085319880399, 1.8124164830502372, 0.9615072025278373, -0.17457636669612384, 0.636449258496893, 0.8036033261292801, 1.7216841461861443, -0.8302571967859304, -1.1089279697958838, 0.2583488604199059, 0.21232513672500902, -0.7223573787112462, 0.8883512147301251, 0.3166691308233561, -0.46794493092435396, 0.0802928281613775, -0.393126383693411, -0.6142748814719917, 1.7380527923726572, -0.05479647337548602, -0.6038787725190028], [0.05189800571520062, 0.9954806939718748, 1.6465914074247279, -0.8520696055246548, 1.2261930927092, -1.409652531811256, -0.9574978383458912, -0.1541851062716691, -0.6174128843489624, -0.11158158538996504, -1.2529628046745824, 0.18017323736952684, 0.13850840695623634, -0.5803456009038908, -0.7099434210201616, -0.05156342459302195, -0.13070247449713596, 1.0122950638811103, 0.8156845906793413, -0.3258448697514023, -0.2584707683063445, -0.890440463887327, -0.4581725076778308, 3.4585968161148313, -0.9704182178744319, 2.6871612033392807, 0.9312776144665534, -0.5331297226042839, -0.28529427255598, -0.9489437188256667, 2.5099520677229528, -0.5465987844690795, -0.5904557741063047, 0.04478654086972869, -0.3501032412749507, -2.337417503090751, -0.39193394121557984, -1.4363442097827432, -0.7701440029913201, -0.751261832842014, -0.4729099359137562, -1.04884099046814, 1.0984440899245669, -0.245925155686946, 0.8414256923875825, 0.7408384241924824, -0.29871029318940123, 0.1501840455008384, -0.09293132743622026, 0.344470886220594, 0.33251104369687506, 0.3165900441554864, -0.22101348869903115, 2.207083055966505, 1.8243643293802945, -0.9480842974626666, -0.17907621643171537, 0.6488732865451622, -2.415277929830738, 0.5644460066626728, -1.2189514192824145, 0.6491554919069787, -0.07814405455485418, 1.712469914106728], [0.018121884498976865, 1.2868566271279418, -0.9536770899957918, 0.6249716158046588, -2.1079351824824952, 1.2595831671666744, 0.052295540824464054, -1.6935875397920435, 0.7796546981181711, 0.2515641406830677, 0.41680075873531786, -0.6575045305090914, 1.4951196920790684, -0.2619036835541532, 0.14332671267990338, 0.40856170791345753, 1.821563134570578, -0.6658197923569463, -1.029488426544686, -0.558484210951185, 0.07169915686160251, 0.3893148498230126, 1.2381498220937583, 0.5426349173834273, 0.4176054720783757, -0.2490561286573809, 1.7616558697903575, -0.7777266438374596, 1.5845692748476627, 0.24618496271496182, 1.6197290353316953, -1.3890458396185827, -0.5136899421847392, 0.6504889220137874, -0.686815870021942, 0.15730681894997947, 0.8258365757680074, 0.9439084133192779, -0.32031813273183546, -0.130653139879242, 1.1501890912387072, 0.2904261887580579, 1.160748238014778, 0.9182095893938784, 0.7519723402914408, 0.5192382722793035, -1.605753253917022, -0.033091365718498744, -0.9964102453866795, 1.4763015223058649, -0.4425368790048132, 1.3291162068337181, -1.385684240835405, -0.13919576433460026, -1.3723823577478322, 0.002803519238126999, -0.2918292935710012, -1.8617821074490928, 1.2818872727038764, 0.7126490965775344, -0.9245172984168462, 0.40097526845531034, -1.20719783751236, 0.6268169549322398], [0.6811546164057318, 1.2135602547880702, 1.7332575914059876, -0.4947735292489333, 0.6599942882559131, 0.6714990303012663, -0.4141657753152125, 0.013931884062029111, 0.6418711256367103, 2.2227303982634825, -0.3185297520381022, -0.7249530356667065, -0.4675991570875114, -0.47357745730860157, -0.07378020274486616, 0.781370586381089, 0.7934656446980911, -0.3971329454505919, 0.09663161980912527, -1.6706243937903251, -0.4379895202325848, 1.2577647190314776, -0.12603917503187925, 2.271128614746993, -0.7626192245513409, -1.1627225171270834, -1.2958611369121733, 0.422911581084335, -0.13601396986120382, -1.398174609265351, -0.2803738374657816, 2.2024455512226138, 0.7787572061225748, -0.05927088042973824, -2.7470742895985643, 0.1815634160148399, 0.29950210736329086, 0.08361582073075834, 1.857782860912462, 0.5313699140284313, -0.09266556751861033, 1.7685456712520204, 1.1405056678571437, 0.9961028356042567, -1.2375443219342774, -2.2097727877045124, -0.20846892700574535, -0.35871014116976846, -0.6277248828430068, -0.5857047946451434, -0.7691722834512744, -0.7417231654487858, 0.6940508344300708, -0.09522896898741048, 0.37052873102232564, -1.070719442325414, -0.18979187817704551, -1.0725280734010154, 0.6116726570430779, 1.393065042332096, 0.1953546483284296, 1.0756236847005496, -0.4917823498818806, -0.9422425381459699], [-0.14539920223680033, 0.6362622660182599, 0.04182810570369838, -0.21389287889052677, 0.9221005619948534, -1.0145012312627588, 1.8084032028340882, -0.8318502703849049, -0.7894887567609739, 0.12701619644361684, -0.2387012305970065, 1.9634211024617778, 0.10993177853936541, 0.9685026229505048, -0.9683099812962441, -1.3241985366554574, 0.05661601077254427, -2.041702766902053, -0.6492040463211859, -0.34881462586888945, -0.4965690407282463, 0.8535335828323091, -0.643045183874729, -1.5882613451116485, 0.2925567529725315, -0.05617111868065574, 0.5317790146621224, -1.045246693166808, 0.8774664641676921, -0.43158147314664974, -0.6642192227574251, 2.2653967676368247, -1.8769461514474393, 0.8892307520480537, -0.3179449821771378, -0.4766879951427944, 0.9604741760190169, 3.4475126742848925, 0.5304907477149375, 0.8663997626708924, 0.9246234205674352, 0.7942625449144928, 0.8100030867232416, 0.6141880273253673, 2.2115273174497565, 2.0201763881177, 2.2299768416162977, -1.8889332764473823, -0.0457826600766222, -0.480478955880425, 0.5145418501104667, -1.4761719350983622, -0.42575171287638475, 0.14058402603523037, -0.15851392021065866, -0.872302654977026, 0.14648587809511712, -0.03357519221112542, -0.4080154539519419, 0.08819553550108837, 0.18335151677198827, 0.6844372767706286, 0.9458112722616882, -2.927304704348112], [0.8014166734215404, -0.5663108224809246, 1.0189672270394743, 0.11324150930846172, 0.5381268052348954, 1.4988954072433454, 1.1793068449570414, 0.7155930932214164, -1.080939823647883, -0.6179873072445213, -0.3516117183571954, -0.7443842297097287, -0.47508681280967346, 0.8423678769062792, 0.042190119056874774, -1.6199172256197443, -1.7230392999293536, 0.33117003378724386, -0.8749915057800132, -1.4773998022894945, 0.9256439164624767, 0.029093660613648917, 1.678392470149881, 1.00620739655509, 0.016557839903286888, 0.15137696817955865, 1.22020141180993, -1.1843477618121876, 0.3421770737151188, 0.06430029220993591, -2.061498022104379, -0.38827991711771337, -0.13295242646086372, 1.8307323417303063, -1.4732740619712523, 1.0474075406899583, 0.7556180978803672, 0.15696581407372606, 0.8422578090621243, 0.21319822408300687, 0.6799541317450675, 0.612648793673014, 0.5952694519636597, -0.016001642670510897, 0.2960826612014467, 0.9049347694502661, -0.6010354787057175, 0.5728107261751832, -0.6742405599653695, 0.28133115394510155, -1.5547614876731002, -1.7393790793226862, -2.1605733664984617, -1.9595779545979073, 1.5562981706347543, 0.32728124011410537, 0.486092600733593, -1.2414069599767943, -0.5401858548179809, -0.10834784260106886, -0.8408623030902963, 0.48073817168724686, -1.475534963196491, 0.4171746410423148], [1.5014811721094392, 1.1179590978428897, -1.9376868674497207, -1.9697136001108857, -1.017518838507636, 1.1360786136783447, -2.0666179431033234, -1.4952775357482488, 0.6728983149600875, -1.7646669442646186, -0.8516531247897089, -0.6053065628603461, -0.805287314139546, 2.5335959087111886, 0.8332325727246073, -1.08700857434471, -0.032037029893050815, 0.6695554604008281, -0.3575058700104287, -0.7368814695745995, -0.5966825940094563, -0.43947623292375165, 0.21677041583681572, -1.2096548068912265, -0.9755548536722656, -0.125466779395108, -1.1430569955624306, -0.5396988359143291, -0.3674542417040041, 0.5034836625654164, -1.7797751671497195, -1.4463339497228298, -0.5435201436060404, -0.4275059256463771, 2.0631448749847663, -0.4111700191985071, -1.891606682178762, 0.17977180277517338, -1.298540715115769, 0.35551752752193405, 0.09274956037327829, -1.3285237951341968, -1.2757732144524097, 2.4438249851845635, -0.38507447926985844, 1.2989811339218187, -0.17385947328690715, -1.1684047852234463, -1.8219219743289388, 1.1746905711623892, 0.3906535323200916, 0.9949376189760822, -0.5038829444383564, 0.12121828145689056, -1.3340145897738582, -0.40134564691807384, -1.035809984241503, 0.07866249867006612, -0.1224765509407554, -0.5223796446578067, -0.8387447289475078, -1.2506844517244984, 1.064831877984919, -1.734925892944343], [0.17238422867530945, 0.10587185773538538, 0.48087086224395265, -0.08869658792811017, -0.039457009161627275, -0.1525679565060907, 0.20589152720837792, 0.7867450333743096, -0.8199048542848791, 0.41978802366657564, -0.9573067670235533, -1.017770320158939, -1.296034917766649, -0.85371799439649, 1.2030979299837534, 0.4138143760547242, -1.3451154438408859, 0.27566056886642765, -0.730490758180352, -0.7898495137721478, 2.898206192665544, 1.581118423907682, 0.2546897614656763, 0.5845354927441562, 1.2971464008101792, -0.5138276703707552, -0.7868486794299897, 0.21748307116911922, -0.05584787328109693, 0.7686846431581891, 0.7175283358464812, 1.2965505381984608, -0.35458486574299486, 0.30134810389252903, 0.5087450441097501, 1.6558199248490792, -0.6285283185235373, -0.865350802899046, 0.9688869843141352, 1.2843833844998855, 0.7708144857819786, 1.3687101235777408, 0.6578142121716842, -0.9321575759441507, 0.29475161885456724, 0.10073964563304727, 0.7910324771639785, -0.8278180302853848, -0.4999911205918866, 0.9521361936816606, 0.5855210670667337, 0.3643353296774034, 0.9244198448430797, 0.12427879489590012, 1.3065408647235515, -0.4274612752821048, -0.710357806772508, 0.08673275328357181, 1.6634750097378082, 0.14836066686102148, -0.52337299276143, -0.6245437813002771, -0.8209808795705086, -1.0706569628754747], [-0.961968164552676, -0.6152142476185017, 0.25000879229760875, -0.6927355914290916, 0.7906049831554218, 0.9406114771862971, 0.11067652064372907, 0.0801603914440327, 0.06735076268881417, 0.14509497472688596, 1.3105465081512713, -0.2889018186210855, -0.08386604949329904, 1.5798217697783816, 0.34897645936960003, 0.9142473796752125, -0.25065505333995647, -1.7773567748390031, -0.8546117717920864, 1.2984193443944538, 1.508473699859843, 0.13920799755829105, 1.3627940878365463, 0.8447186821681648, -0.7977028622292253, 1.3456585334724918, 0.5258908184900898, -0.887097003955972, 0.257253592463951, 0.2150704430734008, 0.4786940539255531, 1.5852181114834052, -1.5521676208283357, 1.7065717754284204, -1.0851290057726983, 1.4561973801784378, 1.0646692406601606, 0.6191278299003353, -0.09182482057904795, -0.6501220930835208, 1.0181999243882647, -0.05887498161268372, 1.5905341822728425, 0.795679662631077, -1.818302165407141, 3.153392137029261, 1.8851430407733711, 0.3404532894397577, -1.0967503791267734, -0.851345345316266, 1.0322371335885347, 1.0261789045654293, 1.2865005944307286, 0.3898433876752992, -2.2252985073520524, -0.5719236387247582, -0.7419325993724647, 0.5531114025200818, 0.8178742376244224, -0.1116920135830844, -0.24281669250063037, 0.5655107347667728, -1.191331334424713, -0.1603741315300629], [0.001668724613004617, 0.17729020131650955, 0.25526965807017604, -0.884563515631581, -0.8061526759728308, -0.9269450087896995, 0.13365491795789675, 0.561275300784475, -0.737526289536093, -1.8950233424552287, 1.358083620177934, -0.8350687266495506, -1.3699336718805524, 1.1014952102742372, -0.3635801608824118, -0.9692113409449963, 0.4890848020614414, 1.32302410307027, 0.19733365034860645, -1.7512711417671418, -1.3725708055045365, 0.3885851523804729, 0.19642833108711708, -0.5674900836700337, -0.458424439842189, -0.684362341481011, -0.3019656836452456, 1.0335806682941213, -0.37794528332812827, -0.5340562744600054, 0.4607755517480089, -0.5450185582941975, -0.06907959275270223, 0.7255376902636066, -1.695273379717824, -1.0466208364833418, 0.49381141397504025, -1.2288597226299407, -1.2613771781923562, -0.7693115141357956, -0.4020514738516932, -0.057367971048429334, -1.0168389600839627, 0.22876689591944427, 0.3882418037302158, 1.4610953997424767, -1.0525221891725844, -0.9857821393509922, -1.2945483377184845, 0.49174595538951915, 0.20304460093894325, -0.13298594534832467, 0.5726959425294189, 0.8445469631221902, 0.7059755569463898, -0.43195752420646355, 0.4195285795214325, -0.3299014971091713, -0.18230481887726285, -1.793290605203908, -0.4822571349680733, -1.1032385989973417, -1.0010898000168718, -0.24047102860608743], [0.25538526919954585, 0.28297478883800176, 0.050206292275700316, -0.8557345994178094, -0.3842851979162807, 0.08023790280266023, -0.28621289990793, -0.2708672756631451, -1.0669804988360205, 1.152235149361064, 0.11356526903860069, -0.9588748715507545, -0.06338128352465013, 0.976838885832656, -0.6815408469719823, 1.8081054602769797, 1.292620759177219, 0.12144040286125649, 0.8847485723887643, 2.7316574039070765, -0.4853456974491458, 0.47743331367039116, -0.23737694521216424, 0.19447986216594013, 0.31853145199722527, -0.45436438842782406, -0.9267772011473071, -0.45957604931739243, -1.0525009246066992, 0.015828843130148314, -1.8813399134714743, -0.39914510372852396, 0.8700739297582233, 0.2831543918470395, 0.4304975012420887, 0.051890792275866834, 0.711973506498264, 0.11511101918419733, -0.5590820683847606, -1.513353110172908, 0.15627796712173594, 1.363542691987883, -1.1667620116463457, -0.5087076231368128, 0.4937729367221049, -0.3155260300504874, -1.231323015876498, -0.9712489835043036, 1.4462502312884664, 0.7653204516039295, -1.5780592517243412, 0.11798112486317815, -0.46956645480533066, -1.575968803077539, -0.03490254168294751, 1.7321096607558997, -1.8943651110563904, -1.140522247306446, -0.7022346151425515, 0.1737338539431008, 0.20909584705606815, -0.5490593919649565, 0.39655180066882706, -0.029836985251240067], [0.2668679695295085, 0.4235083125113879, -0.7387878165693111, 0.8076688206189461, -0.22152373597014857, 